{"learner":{"attributes":{"scikit_learn":"{\"_estimator_type\": \"classifier\"}"},"feature_names":["volume","funding_rate","volume_change_1h","buying_rejection","selling_rejection","realized_vol_24h","rsi_14","atr_14_pct","bar_range_pct","volume_zscore_24h","close_to_vwap_24h","funding_change_8h","funding_zscore_7d","funding_sign_streak","close_fd_04"],"feature_types":["float","float","float","float","float","float","float","float","float","float","float","float","float","float","float"],"gradient_booster":{"model":{"cats":{"enc":[],"feature_segments":[],"sorted_idx":[]},"gbtree_model_param":{"num_parallel_tree":"1","num_trees":"55"},"iteration_indptr":[0,1,2,3,4,5,6,7,8,9,10,11,12,13,14,15,16,17,18,19,20,21,22,23,24,25,26,27,28,29,30,31,32,33,34,35,36,37,38,39,40,41,42,43,44,45,46,47,48,49,50,51,52,53,54,55],"tree_info":[0,0,0,0,0,0,0,0,0,0,0,0,0,0,0,0,0,0,0,0,0,0,0,0,0,0,0,0,0,0,0,0,0,0,0,0,0,0,0,0,0,0,0,0,0,0,0,0,0,0,0,0,0,0,0],"trees":[{"base_weights":[-4.7610587E-4,-4.8380956E-1,8.38618E-2,-8.123638E-1,-4.011352E-1,2.0233475E-2,2.4468105E-1,-8.900636E-1,-5.1046866E-1,-5.170118E-1,-2.119146E-1,-1.7171342E-2,2.795451E-1,-2.1496508E-1,2.7448353E-1,-9.914116E-1,-6.403385E-1,1.8633652E-1,-5.6717354E-1,-7.34414E-1,-4.4130588E-1,-3.5560158E-1,-6.1556697E-2,-1.9915542E-1,1.0489652E-2,5.487653E-1,2.3850612E-1,-1.3813792E-1,-1.0277846E0,2.8932685E-1,-2.976047E-1,-5.0625004E-2,2.2938818E-2,-2.5806475E-2,-6.0227968E-2,-5.6901616E-3,1.833784E-2,-2.9793372E-2,7.803835E-3,-3.285067E-2,-5.4264206E-2,-3.678914E-2,-1.9288998E-2,-1.486965E-2,-3.3080544E-2,-1.2626733E-2,8.642125E-3,-1.35317715E-2,-4.3563084E-3,-2.449052E-3,4.5714034E-3,3.554789E-2,-3.2670465E-3,1.0563358E-2,3.740638E-2,-1.0267516E-2,1.4221616E-2,-1.1628658E-2,-6.848206E-2,1.1230504E-2,1.831884E-2,-3.469798E-3,-2.2471506E-2],"categories":[],"categories_nodes":[],"categories_segments":[],"categories_sizes":[],"default_left":[0,0,0,0,0,0,0,0,0,0,0,0,0,0,0,0,0,0,0,0,0,0,0,0,0,0,0,0,0,0,0,0,0,0,0,0,0,0,0,0,0,0,0,0,0,0,0,0,0,0,0,0,0,0,0,0,0,0,0,0,0,0,0],"id":0,"left_children":[1,3,5,7,9,11,13,15,17,19,21,23,25,27,29,31,33,35,37,39,41,43,45,47,49,51,53,55,57,59,61,-1,-1,-1,-1,-1,-1,-1,-1,-1,-1,-1,-1,-1,-1,-1,-1,-1,-1,-1,-1,-1,-1,-1,-1,-1,-1,-1,-1,-1,-1,-1,-1],"loss_changes":[2.6142627E2,2.5555267E1,5.5870155E1,4.0161133E0,1.6625168E1,3.796456E1,2.1262917E1,3.1672134E0,1.7397013E0,7.4552E0,6.277338E0,1.7223751E1,5.3206024E0,5.7786903E0,1.2433685E1,3.676674E0,2.6154099E0,2.5102347E-1,8.9177513E-1,2.561493E0,5.489441E0,2.4552078E0,6.4758177E0,3.5915298E0,1.4303923E1,6.470539E0,5.809862E0,2.5515118E0,1.8650446E0,6.9875183E0,1.2600055E0,0E0,0E0,0E0,0E0,0E0,0E0,0E0,0E0,0E0,0E0,0E0,0E0,0E0,0E0,0E0,0E0,0E0,0E0,0E0,0E0,0E0,0E0,0E0,0E0,0E0,0E0,0E0,0E0,0E0,0E0,0E0,0E0],"parents":[2147483647,0,0,1,1,2,2,3,3,4,4,5,5,6,6,7,7,8,8,9,9,10,10,11,11,12,12,13,13,14,14,15,15,16,16,17,17,18,18,19,19,20,20,21,21,22,22,23,23,24,24,25,25,26,26,27,27,28,28,29,29,30,30],"right_children":[2,4,6,8,10,12,14,16,18,20,22,24,26,28,30,32,34,36,38,40,42,44,46,48,50,52,54,56,58,60,62,-1,-1,-1,-1,-1,-1,-1,-1,-1,-1,-1,-1,-1,-1,-1,-1,-1,-1,-1,-1,-1,-1,-1,-1,-1,-1,-1,-1,-1,-1,-1,-1],"split_conditions":[6.8080816E-3,3.0015714E-3,1.0803341E-2,3.679621E-3,2.574432E-3,2.1309275E-2,2.785495E4,4.8227715E-3,-5.888823E-1,2.6167114E-3,3.562342E4,5.823592E-3,1.2559111E-2,8.153445E3,2.4809E-4,8.574841E3,5.3379526E3,-6.7934763E-1,1.4727362E-2,3.067E-5,-1.0345669E-2,7.826538E3,3.4923006E-3,2.8014334E-4,-5.2427785E-3,1.0856E-4,1.372E1,1.305688E-2,6.397E-5,1.4601947E-2,1.6117988E-2,-5.0625004E-2,2.2938818E-2,-2.5806475E-2,-6.0227968E-2,-5.6901616E-3,1.833784E-2,-2.9793372E-2,7.803835E-3,-3.285067E-2,-5.4264206E-2,-3.678914E-2,-1.9288998E-2,-1.486965E-2,-3.3080544E-2,-1.2626733E-2,8.642125E-3,-1.35317715E-2,-4.3563084E-3,-2.449052E-3,4.5714034E-3,3.554789E-2,-3.2670465E-3,1.0563358E-2,3.740638E-2,-1.0267516E-2,1.4221616E-2,-1.1628658E-2,-6.848206E-2,1.1230504E-2,1.831884E-2,-3.469798E-3,-2.2471506E-2],"split_indices":[7,8,10,10,10,7,0,7,2,5,0,8,5,14,11,14,14,9,10,11,10,14,5,10,10,1,3,7,1,8,7,0,0,0,0,0,0,0,0,0,0,0,0,0,0,0,0,0,0,0,0,0,0,0,0,0,0,0,0,0,0,0,0],"split_type":[0,0,0,0,0,0,0,0,0,0,0,0,0,0,0,0,0,0,0,0,0,0,0,0,0,0,0,0,0,0,0,0,0,0,0,0,0,0,0,0,0,0,0,0,0,0,0,0,0,0,0,0,0,0,0,0,0,0,0,0,0,0,0],"sum_hessian":[6.4112754E3,9.5180786E2,5.4594673E3,1.8957925E2,7.622286E2,3.9125774E3,1.54689E3,1.4922458E2,4.035468E1,4.7165808E2,2.9057053E2,3.420164E3,4.924132E2,9.381165E1,1.4530784E3,1.0403369E2,4.5190884E1,2.8648262E0,3.7489853E1,1.1957571E2,3.5208237E2,1.4788332E2,1.4268721E2,4.5044534E2,2.9697188E3,6.349663E1,4.2891656E2,8.677928E1,7.03237E0,1.4168123E3,3.6266167E1,1.0284002E2,1.19367E0,3.8606674E1,6.584207E0,1.2141871E0,1.650639E0,3.622866E1,1.2611936E0,1.003184E2,1.9257313E1,5.3912247E1,2.981701E2,1.25905594E2,2.1977716E1,7.858351E1,6.410369E1,2.7412485E2,1.763205E2,1.7121133E3,1.2576056E3,5.010549E1,1.3391144E1,4.084972E2,2.0419386E1,7.531415E1,1.1465134E1,2.6194499E0,4.4129205E0,7.7216266E2,6.446496E2,1.5070609E1,2.1195557E1],"tree_param":{"num_deleted":"0","num_feature":"15","num_nodes":"63","size_leaf_vector":"1"}},{"base_weights":[8.931093E-4,-4.385073E-1,7.37208E-2,-5.8099395E-1,-2.1963917E-1,-2.0293061E-1,1.10467404E-1,-8.926927E-1,-4.399418E-1,-3.922091E-1,-5.732641E-2,-3.3815658E-1,-1.0964272E-1,-2.1016784E-3,1.8753408E-1,1.537729E-2,-9.061473E-1,-4.9323523E-1,4.1098517E-1,-4.6751082E-1,-4.9532723E-2,-1.5758002E-1,2.7060512E-1,-6.1846393E-1,-2.6402614E-1,-2.2596252E-1,-7.448777E-3,-6.144944E-2,1.8864065E-1,2.1508655E-1,-6.808511E-2,-5.6608792E-2,-4.105794E-2,-3.1664122E-2,-1.5924973E-2,3.0405922E-2,-2.1778231E-2,-2.4591632E-2,2.3554403E-2,1.6192492E-2,-1.1604619E-2,-2.0099591E-2,1.3536562E-3,-1.3444423E-2,1.9164234E-2,-3.67993E-2,-5.996538E-3,-3.2720108E-2,-1.0735244E-2,-4.3236252E-2,-1.0252778E-2,-6.2617273E-3,4.9291165E-3,1.4699221E-3,-9.402074E-3,6.1604716E-3,2.0384409E-2,7.9915365E-3,1.4963123E-2,-2.7918068E-4,-2.6334817E-2],"categories":[],"categories_nodes":[],"categories_segments":[],"categories_sizes":[],"default_left":[0,0,0,0,0,0,0,0,0,0,0,0,0,0,0,0,0,0,0,0,0,0,0,0,0,0,0,0,0,0,0,0,0,0,0,0,0,0,0,0,0,0,0,0,0,0,0,0,0,0,0,0,0,0,0,0,0,0,0,0,0],"id":1,"left_children":[1,3,5,7,9,11,13,15,17,19,21,23,25,27,29,-1,31,33,35,37,39,41,43,45,47,49,51,53,55,57,59,-1,-1,-1,-1,-1,-1,-1,-1,-1,-1,-1,-1,-1,-1,-1,-1,-1,-1,-1,-1,-1,-1,-1,-1,-1,-1,-1,-1,-1,-1],"loss_changes":[2.0620067E2,2.8443237E1,5.6215065E1,2.3977188E1,1.01412525E1,8.143276E0,4.233636E1,3.0516663E0,1.7597496E1,4.5106316E0,6.2285423E0,5.3275967E0,4.577461E0,2.2473053E1,2.04169E1,0E0,2.3372345E0,8.642807E0,4.1287146E0,3.517355E0,2.309063E0,6.5429497E0,2.803488E0,3.106121E0,3.916769E0,2.2281551E0,2.586243E0,1.741858E1,6.7019577E0,1.2116089E1,8.098061E0,0E0,0E0,0E0,0E0,0E0,0E0,0E0,0E0,0E0,0E0,0E0,0E0,0E0,0E0,0E0,0E0,0E0,0E0,0E0,0E0,0E0,0E0,0E0,0E0,0E0,0E0,0E0,0E0,0E0,0E0],"parents":[2147483647,0,0,1,1,2,2,3,3,4,4,5,5,6,6,7,7,8,8,9,9,10,10,11,11,12,12,13,13,14,14,16,16,17,17,18,18,19,19,20,20,21,21,22,22,23,23,24,24,25,25,26,26,27,27,28,28,29,29,30,30],"right_children":[2,4,6,8,10,12,14,16,18,20,22,24,26,28,30,-1,32,34,36,38,40,42,44,46,48,50,52,54,56,58,60,-1,-1,-1,-1,-1,-1,-1,-1,-1,-1,-1,-1,-1,-1,-1,-1,-1,-1,-1,-1,-1,-1,-1,-1,-1,-1,-1,-1,-1,-1],"split_conditions":[3.9286194E-3,5.2892944E1,5.880812E-3,2.6167114E-3,3.0771346E4,4.8167538E1,4.5440403E1,-4.0679E-4,2.235E3,6.5767426E1,3.71E0,1.451217E4,6.3712562E4,1.2114206E-2,2.3264E-4,1.537729E-2,1.8180393E-3,1.2899326E5,3.774E3,3.019E3,2.4812396E-3,3.1483432E-3,2.4812396E-3,6.4262254E-3,3.3448257E1,-2.5843E-4,5.46935E1,4.6E1,1.9824577E-2,1.4727362E-2,6.6742E-4,-5.6608792E-2,-4.105794E-2,-3.1664122E-2,-1.5924973E-2,3.0405922E-2,-2.1778231E-2,-2.4591632E-2,2.3554403E-2,1.6192492E-2,-1.1604619E-2,-2.0099591E-2,1.3536562E-3,-1.3444423E-2,1.9164234E-2,-3.67993E-2,-5.996538E-3,-3.2720108E-2,-1.0735244E-2,-4.3236252E-2,-1.0252778E-2,-6.2617273E-3,4.9291165E-3,1.4699221E-3,-9.402074E-3,6.1604716E-3,2.0384409E-2,7.9915365E-3,1.4963123E-2,-2.7918068E-4,-2.6334817E-2],"split_indices":[5,6,8,5,0,6,6,1,13,6,4,0,0,5,1,0,5,0,13,13,5,5,5,5,6,1,6,13,5,10,1,0,0,0,0,0,0,0,0,0,0,0,0,0,0,0,0,0,0,0,0,0,0,0,0,0,0,0,0,0,0],"split_type":[0,0,0,0,0,0,0,0,0,0,0,0,0,0,0,0,0,0,0,0,0,0,0,0,0,0,0,0,0,0,0,0,0,0,0,0,0,0,0,0,0,0,0,0,0,0,0,0,0,0,0,0,0,0,0,0,0,0,0,0,0],"sum_hessian":[6.4416577E3,9.1514966E2,5.5265083E3,5.532927E2,3.61857E2,6.4746497E2,4.879043E3,1.7071524E2,3.8257745E2,1.7470029E2,1.871567E2,2.632478E2,3.8421713E2,1.9832052E3,2.8958381E3,1.6501837E0,1.6906506E2,3.6042447E2,2.2152971E1,1.4292815E2,3.1772148E1,1.4373439E2,4.34223E1,5.352237E1,2.0972545E2,1.7912328E2,2.0509387E2,1.5130967E3,4.7010855E2,2.6142175E3,2.8162048E2,4.2831726E1,1.2623334E2,1.9861461E2,1.6180988E2,1.819712E1,3.9558518E0,1.3978197E2,3.1461675E0,1.0179155E1,2.1592993E1,6.135125E1,8.238315E1,7.26279E0,3.6159508E1,4.292671E1,1.0595663E1,2.2148966E1,1.8757648E2,4.397816E0,1.7472545E2,9.707546E1,1.0801841E2,8.813616E2,6.3173505E2,3.631848E2,1.06923706E2,1.5799714E3,1.0342461E3,2.487341E2,3.2886375E1],"tree_param":{"num_deleted":"0","num_feature":"15","num_nodes":"61","size_leaf_vector":"1"}},{"base_weights":[-1.8941067E-3,-4.3290645E-1,6.929801E-2,-5.7733625E-1,-2.3822995E-1,-1.8222807E-1,1.03716925E-1,-8.477761E-1,-4.5364743E-1,-4.2790475E-1,-1.4003551E-1,-3.1447685E-1,-8.49697E-2,5.2753583E-2,2.5395152E-1,-7.82866E-1,-1.2083575E0,-5.03481E-1,3.6318755E-1,-4.9520585E-1,1.7881916E-1,-1.0079623E-1,-6.729795E-1,-2.6711512E-1,-6.760797E-1,-6.262116E-2,-6.2324077E-1,1.3267504E-2,2.10125E-1,2.7071604E-1,-3.4751132E-1,-4.2196047E-2,-2.1170061E-2,-6.5304555E-2,-9.8631E-3,-3.3209905E-2,-2.0168325E-2,2.909628E-2,-1.7557997E-2,-2.8038522E-2,2.190735E-3,1.7341446E-2,-2.6665414E-2,-1.1082616E-2,5.05489E-3,-4.7135796E-2,-3.3760828E-3,2.9628163E-3,-1.54395625E-2,-4.7867116E-2,-1.640541E-2,-2.4518748E-3,-4.2232383E-2,-5.3848434E-2,-7.0925537E-3,1.7808447E-2,-3.0622512E-4,-1.9563977E-3,1.2441788E-2,1.4589593E-2,-6.9467346E-3,-3.7310075E-2,-1.1180397E-2],"categories":[],"categories_nodes":[],"categories_segments":[],"categories_sizes":[],"default_left":[0,0,0,0,0,0,0,0,0,0,0,0,0,0,0,0,0,0,0,0,0,0,0,0,0,0,0,0,0,0,0,0,0,0,0,0,0,0,0,0,0,0,0,0,0,0,0,0,0,0,0,0,0,0,0,0,0,0,0,0,0,0,0],"id":2,"left_children":[1,3,5,7,9,11,13,15,17,19,21,23,25,27,29,31,33,35,37,39,41,43,45,47,49,51,53,55,57,59,61,-1,-1,-1,-1,-1,-1,-1,-1,-1,-1,-1,-1,-1,-1,-1,-1,-1,-1,-1,-1,-1,-1,-1,-1,-1,-1,-1,-1,-1,-1,-1,-1],"loss_changes":[1.9749243E2,2.5516174E1,4.7840057E1,1.71129E1,7.2094326E0,8.530052E0,3.7193645E1,2.8692932E0,1.4880859E1,5.504999E0,5.3411965E0,4.6412296E0,4.5888996E0,2.255334E1,1.250312E1,2.7368088E0,2.0178986E0,5.2145615E0,3.5393E0,4.2537403E0,1.8575418E0,5.9294558E0,2.804429E0,3.4268665E0,2.8131256E0,3.8941987E0,3.1725616E0,1.9304985E1,7.0342865E0,1.0382477E1,1.5033164E0,0E0,0E0,0E0,0E0,0E0,0E0,0E0,0E0,0E0,0E0,0E0,0E0,0E0,0E0,0E0,0E0,0E0,0E0,0E0,0E0,0E0,0E0,0E0,0E0,0E0,0E0,0E0,0E0,0E0,0E0,0E0,0E0],"parents":[2147483647,0,0,1,1,2,2,3,3,4,4,5,5,6,6,7,7,8,8,9,9,10,10,11,11,12,12,13,13,14,14,15,15,16,16,17,17,18,18,19,19,20,20,21,21,22,22,23,23,24,24,25,25,26,26,27,27,28,28,29,29,30,30],"right_children":[2,4,6,8,10,12,14,16,18,20,22,24,26,28,30,32,34,36,38,40,42,44,46,48,50,52,54,56,58,60,62,-1,-1,-1,-1,-1,-1,-1,-1,-1,-1,-1,-1,-1,-1,-1,-1,-1,-1,-1,-1,-1,-1,-1,-1,-1,-1,-1,-1,-1,-1,-1,-1],"split_conditions":[3.9286194E-3,5.213657E1,5.938151E-3,2.6167114E-3,3.8824365E-3,4.852855E1,1.3790247E-2,4.36E2,2.235E3,6.610857E1,7.826538E3,4.2089717E3,7.2673496E3,1.2007362E-2,2.4809E-4,9.629E-5,2.709E3,4.703929E-3,3.361E3,7.86E2,1.1158956E0,7.3089096E1,7.740867E-1,-1.8332582E-2,4.44152E-3,4.3391E-4,4.9045985E-3,-2.7E1,2.8961979E1,3.361E3,2.347E-5,-4.2196047E-2,-2.1170061E-2,-6.5304555E-2,-9.8631E-3,-3.3209905E-2,-2.0168325E-2,2.909628E-2,-1.7557997E-2,-2.8038522E-2,2.190735E-3,1.7341446E-2,-2.6665414E-2,-1.1082616E-2,5.05489E-3,-4.7135796E-2,-3.3760828E-3,2.9628163E-3,-1.54395625E-2,-4.7867116E-2,-1.640541E-2,-2.4518748E-3,-4.2232383E-2,-5.3848434E-2,-7.0925537E-3,1.7808447E-2,-3.0622512E-4,-1.9563977E-3,1.2441788E-2,1.4589593E-2,-6.9467346E-3,-3.7310075E-2,-1.1180397E-2],"split_indices":[5,6,8,5,8,6,10,13,13,6,14,14,14,5,11,1,13,8,13,13,12,14,12,10,8,1,5,13,6,13,1,0,0,0,0,0,0,0,0,0,0,0,0,0,0,0,0,0,0,0,0,0,0,0,0,0,0,0,0,0,0,0,0],"split_type":[0,0,0,0,0,0,0,0,0,0,0,0,0,0,0,0,0,0,0,0,0,0,0,0,0,0,0,0,0,0,0,0,0,0,0,0,0,0,0,0,0,0,0,0,0,0,0,0,0,0,0,0,0,0,0,0,0,0,0,0,0,0,0],"sum_hessian":[6.4342124E3,9.1138873E2,5.5228237E3,5.220879E2,3.893008E2,6.6425995E2,4.8585635E3,1.6200887E2,3.6007904E2,1.3164818E2,2.5765265E2,2.8054733E2,3.8371262E2,3.6289006E3,1.229663E3,1.3998125E2,2.2027617E1,3.3973602E2,2.034301E1,1.1866862E2,1.2979559E1,2.4109088E2,1.6561764E1,2.4959479E2,3.0952547E1,3.6948813E2,1.4224481E1,2.9018752E3,7.2702545E2,1.1968531E3,3.2809834E1,1.18505455E2,2.1475796E1,1.9820032E1,2.2075844E0,1.2823752E2,2.114985E2,1.5716029E1,4.6269803E0,1.0576355E2,1.2905069E1,1.0916933E1,2.0626256E0,1.5075146E2,9.033942E1,1.1072045E1,5.4897175E0,2.8215292E1,2.2137949E2,1.6148575E1,1.4803973E1,3.642243E2,5.26381E0,6.685725E0,7.5387554E0,1.5439531E2,2.74748E3,9.773206E1,6.292934E2,1.1385637E3,5.82894E1,6.588201E0,2.6221634E1],"tree_param":{"num_deleted":"0","num_feature":"15","num_nodes":"63","size_leaf_vector":"1"}},{"base_weights":[2.9601771E-3,-4.2481038E-1,7.812997E-2,-5.946217E-1,-2.3923755E-1,-1.5271435E-2,1.5449107E-1,-9.27699E-1,-4.9946085E-1,-4.3804142E-1,-1.3029681E-1,-9.0485156E-2,1.8953857E-1,1.725825E-1,-1.9240157E-1,1.10743595E-2,-9.4182533E-1,-5.68846E-1,-1.8906234E-1,-6.219855E-1,-3.3426765E-1,-2.7124634E-1,9.556464E-3,-4.800337E-3,-1.7481127E-1,9.693221E-2,2.750961E-1,6.9523886E-2,2.335997E-1,8.425208E-2,-3.061423E-1,-4.8213672E-2,-4.9145175E-3,-5.6952655E-2,-2.6624724E-2,-1.2621261E-2,1.9304017E-2,-3.2849252E-2,1.065135E-2,-1.3454648E-2,-5.0546493E-2,-2.4228299E-2,-4.9498025E-3,-1.3360498E-2,8.858489E-3,-1.4729722E-2,1.6465643E-3,-1.3407031E-2,7.8275516E-5,6.289585E-3,-1.647501E-2,5.913742E-4,1.7708784E-2,-3.6900684E-3,6.127295E-3,1.5686283E-2,9.411204E-3,1.0285619E-2,-3.4283046E-2,-2.6963536E-2,-5.987968E-3],"categories":[],"categories_nodes":[],"categories_segments":[],"categories_sizes":[],"default_left":[0,0,0,0,0,0,0,0,0,0,0,0,0,0,0,0,0,0,0,0,0,0,0,0,0,0,0,0,0,0,0,0,0,0,0,0,0,0,0,0,0,0,0,0,0,0,0,0,0,0,0,0,0,0,0,0,0,0,0,0,0],"id":3,"left_children":[1,3,5,7,9,11,13,15,17,19,21,23,25,27,29,-1,31,33,35,37,39,41,43,45,47,49,51,53,55,57,59,-1,-1,-1,-1,-1,-1,-1,-1,-1,-1,-1,-1,-1,-1,-1,-1,-1,-1,-1,-1,-1,-1,-1,-1,-1,-1,-1,-1,-1,-1],"loss_changes":[2.0631992E2,3.007782E1,3.8925167E1,1.5387405E1,9.903421E0,3.784558E1,1.8877136E1,1.9936752E0,8.31617E0,2.8917103E0,5.887128E0,1.2981594E1,5.2019176E0,1.79328E1,4.7240024E0,0E0,1.9657211E0,6.009224E0,2.7561479E0,1.8176346E0,4.4016085E0,5.4163656E0,7.0433564E0,9.765687E0,1.4906485E1,3.9604318E0,7.12566E0,8.086477E0,6.457794E0,4.2822633E0,4.5422134E0,0E0,0E0,0E0,0E0,0E0,0E0,0E0,0E0,0E0,0E0,0E0,0E0,0E0,0E0,0E0,0E0,0E0,0E0,0E0,0E0,0E0,0E0,0E0,0E0,0E0,0E0,0E0,0E0,0E0,0E0],"parents":[2147483647,0,0,1,1,2,2,3,3,4,4,5,5,6,6,7,7,8,8,9,9,10,10,11,11,12,12,13,13,14,14,16,16,17,17,18,18,19,19,20,20,21,21,22,22,23,23,24,24,25,25,26,26,27,27,28,28,29,29,30,30],"right_children":[2,4,6,8,10,12,14,16,18,20,22,24,26,28,30,-1,32,34,36,38,40,42,44,46,48,50,52,54,56,58,60,-1,-1,-1,-1,-1,-1,-1,-1,-1,-1,-1,-1,-1,-1,-1,-1,-1,-1,-1,-1,-1,-1,-1,-1,-1,-1,-1,-1,-1,-1],"split_conditions":[6.8080816E-3,5.1153088E1,4.7172485E1,4.3669357E-3,-4.797309E-1,1.7577121E-2,1.7112805E0,-4.0679E-4,1.1725895E7,5.0148014E-3,3.1483432E-3,4.622E-5,2.2608394E-2,9.26706E-3,1.7432E-4,1.10743595E-2,1.7891389E0,2.8961979E1,1.1158956E0,8.574841E3,7.2673496E3,5.0062683E1,2.534105E4,7.92648E-3,1.2992008E-2,4.4497028E-2,2.9419695E1,7.407953E4,4.871E-5,3.693866E3,1.3634E-4,-4.8213672E-2,-4.9145175E-3,-5.6952655E-2,-2.6624724E-2,-1.2621261E-2,1.9304017E-2,-3.2849252E-2,1.065135E-2,-1.3454648E-2,-5.0546493E-2,-2.4228299E-2,-4.9498025E-3,-1.3360498E-2,8.858489E-3,-1.4729722E-2,1.6465643E-3,-1.3407031E-2,7.8275516E-5,6.289585E-3,-1.647501E-2,5.913742E-4,1.7708784E-2,-3.6900684E-3,6.127295E-3,1.5686283E-2,9.411204E-3,1.0285619E-2,-3.4283046E-2,-2.6963536E-2,-5.987968E-3],"split_indices":[7,6,6,7,9,7,12,1,0,7,5,1,7,8,1,0,12,6,12,14,14,14,0,7,7,8,6,0,1,14,11,0,0,0,0,0,0,0,0,0,0,0,0,0,0,0,0,0,0,0,0,0,0,0,0,0,0,0,0,0,0],"split_type":[0,0,0,0,0,0,0,0,0,0,0,0,0,0,0,0,0,0,0,0,0,0,0,0,0,0,0,0,0,0,0,0,0,0,0,0,0,0,0,0,0,0,0,0,0,0,0,0,0,0,0,0,0,0,0,0,0,0,0,0,0],"sum_hessian":[6.414302E3,9.5799054E2,5.456311E3,4.9908795E2,4.5890256E2,2.4546704E3,3.0016406E3,1.0896062E2,3.9012735E2,1.6138083E2,2.9752173E2,1.79576E3,6.589105E2,2.8533337E3,1.4830692E2,1.144874E0,1.0781574E2,3.1817194E2,7.195539E1,5.6405563E1,1.04975266E2,1.4771219E2,1.4980954E2,8.912286E2,9.0453143E2,3.1744507E2,3.4146548E2,1.0619052E3,1.7914285E3,4.3284496E1,1.05022415E2,1.04881516E2,2.9342332E0,1.7250309E1,3.0092163E2,6.532024E1,6.6351557E0,5.4341064E1,2.064501E0,9.702746E1,7.947806E0,6.517923E1,8.253296E1,5.6281765E1,9.352778E1,1.0188708E2,7.893415E2,5.911864E2,3.1334503E2,2.9798355E2,1.9461498E1,7.914124E1,2.6232425E2,2.866532E2,7.7525195E2,6.4556024E2,1.1458683E3,3.801942E1,5.2650757E0,4.5818787E1,5.9203632E1],"tree_param":{"num_deleted":"0","num_feature":"15","num_nodes":"61","size_leaf_vector":"1"}},{"base_weights":[-2.3370478E-3,-3.8957533E-1,6.55326E-2,-5.390369E-1,-2.105089E-1,1.4066159E-2,1.9543616E-1,-8.6551005E-1,-4.450562E-1,-3.5049152E-1,-4.4507947E-2,-1.7838111E-2,2.361815E-1,-2.146798E-1,2.2222124E-1,-1.1133585E0,-7.424858E-1,-1.044852E0,-4.1381598E-1,-3.9109048E-1,1.5962335E-1,-2.3112713E-1,1.0298892E-1,-7.132106E-2,6.1550997E-2,2.0308453E-1,6.1267644E-1,6.922493E-1,-2.8677619E-1,2.3957886E-1,-2.4195945E-1,-5.815647E-2,-2.9076416E-2,-5.5375345E-2,-3.283524E-2,-7.6013566E-3,-5.4973286E-2,-2.3123672E-2,-6.542695E-3,-1.6783832E-2,-3.763675E-2,3.0192211E-2,-1.6178951E-3,-1.9742463E-2,5.792294E-3,7.445806E-3,-4.2542834E-2,-6.948492E-3,9.554946E-4,3.8278566E-3,-2.11295E-2,2.1227224E-2,7.5900266E-3,7.947486E-3,3.8958963E-2,-3.7619125E-3,4.5138672E-2,-1.0507394E-2,-5.0139662E-2,1.2297311E-2,-3.13423E-2,-4.075771E-2,-8.291635E-3],"categories":[],"categories_nodes":[],"categories_segments":[],"categories_sizes":[],"default_left":[0,0,0,0,0,0,0,0,0,0,0,0,0,0,0,0,0,0,0,0,0,0,0,0,0,0,0,0,0,0,0,0,0,0,0,0,0,0,0,0,0,0,0,0,0,0,0,0,0,0,0,0,0,0,0,0,0,0,0,0,0,0,0],"id":4,"left_children":[1,3,5,7,9,11,13,15,17,19,21,23,25,27,29,31,33,35,37,39,41,43,45,47,49,51,53,55,57,59,61,-1,-1,-1,-1,-1,-1,-1,-1,-1,-1,-1,-1,-1,-1,-1,-1,-1,-1,-1,-1,-1,-1,-1,-1,-1,-1,-1,-1,-1,-1,-1,-1],"loss_changes":[1.6850424E2,2.5476028E1,3.6469994E1,1.5585037E1,1.01304E1,2.7700783E1,1.7052052E1,2.688568E0,7.1792603E0,4.965164E0,5.553593E0,1.4518964E1,5.9932957E0,6.4369946E0,1.1769333E1,2.8287506E-1,1.7790756E0,7.8146744E-1,5.2783127E0,4.1475143E0,1.5684428E0,5.1012506E0,5.0726094E0,1.250038E1,1.00328045E1,5.077938E0,2.8357506E0,1.2504823E0,4.6774096E0,7.886902E0,2.1728103E0,0E0,0E0,0E0,0E0,0E0,0E0,0E0,0E0,0E0,0E0,0E0,0E0,0E0,0E0,0E0,0E0,0E0,0E0,0E0,0E0,0E0,0E0,0E0,0E0,0E0,0E0,0E0,0E0,0E0,0E0,0E0,0E0],"parents":[2147483647,0,0,1,1,2,2,3,3,4,4,5,5,6,6,7,7,8,8,9,9,10,10,11,11,12,12,13,13,14,14,15,15,16,16,17,17,18,18,19,19,20,20,21,21,22,22,23,23,24,24,25,25,26,26,27,27,28,28,29,29,30,30],"right_children":[2,4,6,8,10,12,14,16,18,20,22,24,26,28,30,32,34,36,38,40,42,44,46,48,50,52,54,56,58,60,62,-1,-1,-1,-1,-1,-1,-1,-1,-1,-1,-1,-1,-1,-1,-1,-1,-1,-1,-1,-1,-1,-1,-1,-1,-1,-1,-1,-1,-1,-1,-1,-1],"split_conditions":[6.8080816E-3,5.175863E1,1.0803341E-2,4.3669357E-3,3.0771346E4,2.1309275E-2,2.785495E4,2.3328064E-3,2.8471678E1,7.069376E1,3.1483432E-3,4.7172485E1,1.614611E1,5.3163467E1,2.1347146E0,9.91E1,3.709431E1,-1.8086174E0,1.5720396E7,7.826538E3,1.1295871E-2,6.211598E1,5.2031474E-3,1.2796313E-2,4.3391E-4,1.3224211E-2,3.1949577E1,1.1805916E-2,8.153445E3,3.3117E-4,2.004E-5,-5.815647E-2,-2.9076416E-2,-5.5375345E-2,-3.283524E-2,-7.6013566E-3,-5.4973286E-2,-2.3123672E-2,-6.542695E-3,-1.6783832E-2,-3.763675E-2,3.0192211E-2,-1.6178951E-3,-1.9742463E-2,5.792294E-3,7.445806E-3,-4.2542834E-2,-6.948492E-3,9.554946E-4,3.8278566E-3,-2.11295E-2,2.1227224E-2,7.5900266E-3,7.947486E-3,3.8958963E-2,-3.7619125E-3,4.5138672E-2,-1.0507394E-2,-5.0139662E-2,1.2297311E-2,-3.13423E-2,-4.075771E-2,-8.291635E-3],"split_indices":[7,6,10,7,0,7,0,8,6,6,5,6,14,6,12,3,6,12,0,14,10,14,5,7,1,5,6,10,14,11,11,0,0,0,0,0,0,0,0,0,0,0,0,0,0,0,0,0,0,0,0,0,0,0,0,0,0,0,0,0,0,0,0],"split_type":[0,0,0,0,0,0,0,0,0,0,0,0,0,0,0,0,0,0,0,0,0,0,0,0,0,0,0,0,0,0,0,0,0,0,0,0,0,0,0,0,0,0,0,0,0,0,0,0,0,0,0,0,0,0,0,0,0,0,0,0,0,0,0],"sum_hessian":[6.4094897E3,9.5513196E2,5.454358E3,5.195054E2,4.3562656E2,3.9073962E3,1.5469615E3,1.14285965E2,4.052194E2,2.3573138E2,1.9989519E2,3.4174407E3,4.899557E2,9.440947E1,1.4525521E3,3.5240143E1,7.904582E1,1.8454626E1,3.8676477E2,2.1856926E2,1.7162125E1,8.7994225E1,1.11900955E2,2.0419315E3,1.3755092E3,4.5177997E2,3.8175716E1,6.3189654E0,8.80905E1,1.4006595E3,5.1892532E1,3.113899E1,4.1011505E0,1.2774794E1,6.6271034E1,1.2818952E0,1.7172731E1,3.2947473E2,5.7290035E1,1.9120033E2,2.736892E1,4.5314894E0,1.2630635E1,5.9690693E1,2.8303535E1,1.07565605E2,4.335353E0,1.1677985E3,8.7413306E2,1.334973E3,4.0536114E1,8.3579575E1,3.6820038E2,1.0773137E1,2.740258E1,1.498531E0,4.8204346E0,8.0742874E1,7.3476276E0,1.3911521E3,9.507444E0,4.9457517E0,4.694678E1],"tree_param":{"num_deleted":"0","num_feature":"15","num_nodes":"63","size_leaf_vector":"1"}},{"base_weights":[-3.1507271E-3,-3.642788E-1,5.6710493E-2,-4.8973492E-1,-1.687015E-1,-1.5978569E-1,8.7772526E-2,-5.283338E-1,2.420468E-1,-2.2721113E-1,2.0764606E-1,-3.3013812E-1,-1.0593437E-1,-1.8054219E-2,1.519295E-1,-8.6449856E-1,-4.6351874E-1,4.3607524E-1,-5.944348E-1,-2.7806884E-1,4.2238906E-2,3.591037E-1,-6.474233E-1,-2.8676444E-1,-6.8988234E-1,-7.019824E-2,-4.2716953E-1,1.4824398E-1,-6.022076E-2,1.7765807E-1,-9.000937E-2,3.2961876E-3,-4.3936577E-2,-2.1719214E-2,-5.3021472E-2,3.9681327E-3,4.6712674E-2,3.849977E-2,-5.3979214E-2,-2.7055297E-2,-1.0558534E-2,-1.0432358E-2,9.725575E-3,-2.9175062E-2,2.3844652E-2,2.8267551E-2,-5.2146565E-2,-1.0965542E-2,-2.2436528E-2,-4.9502786E-2,-1.3698249E-2,-4.850821E-3,1.2630629E-2,-4.1327473E-2,-1.2992461E-2,8.074737E-3,-4.392615E-2,-5.2085533E-3,5.125193E-3,7.183339E-3,1.4808035E-2,-3.0888512E-3,-5.074036E-2],"categories":[],"categories_nodes":[],"categories_segments":[],"categories_sizes":[],"default_left":[0,0,0,0,0,0,0,0,0,0,0,0,0,0,0,0,0,0,0,0,0,0,0,0,0,0,0,0,0,0,0,0,0,0,0,0,0,0,0,0,0,0,0,0,0,0,0,0,0,0,0,0,0,0,0,0,0,0,0,0,0,0,0],"id":5,"left_children":[1,3,5,7,9,11,13,15,17,19,21,23,25,27,29,31,33,35,37,39,41,43,45,47,49,51,53,55,57,59,61,-1,-1,-1,-1,-1,-1,-1,-1,-1,-1,-1,-1,-1,-1,-1,-1,-1,-1,-1,-1,-1,-1,-1,-1,-1,-1,-1,-1,-1,-1,-1,-1],"loss_changes":[1.3863196E2,2.2291237E1,3.7007957E1,1.5804199E1,7.9275E0,6.300377E0,3.2670612E1,1.1092743E1,4.883662E0,4.262581E0,6.536082E0,2.3830013E0,6.010599E0,1.2749451E1,1.8662872E1,1.1717758E0,7.2676163E0,4.1383924E0,4.662611E0,4.47983E0,1.9553463E0,4.940679E0,4.273901E0,1.5329046E0,1.8617945E0,4.134222E0,3.2922E0,5.14592E0,1.0381542E1,1.0865448E1,7.4725776E0,0E0,0E0,0E0,0E0,0E0,0E0,0E0,0E0,0E0,0E0,0E0,0E0,0E0,0E0,0E0,0E0,0E0,0E0,0E0,0E0,0E0,0E0,0E0,0E0,0E0,0E0,0E0,0E0,0E0,0E0,0E0,0E0],"parents":[2147483647,0,0,1,1,2,2,3,3,4,4,5,5,6,6,7,7,8,8,9,9,10,10,11,11,12,12,13,13,14,14,15,15,16,16,17,17,18,18,19,19,20,20,21,21,22,22,23,23,24,24,25,25,26,26,27,27,28,28,29,29,30,30],"right_children":[2,4,6,8,10,12,14,16,18,20,22,24,26,28,30,32,34,36,38,40,42,44,46,48,50,52,54,56,58,60,62,-1,-1,-1,-1,-1,-1,-1,-1,-1,-1,-1,-1,-1,-1,-1,-1,-1,-1,-1,-1,-1,-1,-1,-1,-1,-1,-1,-1,-1,-1,-1,-1],"split_conditions":[3.9286194E-3,5.302949E1,5.9959674E-3,2.235E3,7.86E2,4.030356E-3,4.4448387E1,2.7672956E-3,3.774E3,6.713121E1,8.070799E-1,6.339611E3,1.752E3,-5E0,2.3264E-4,-5.8E1,1.31E3,1.7082347E-1,1.0856E-4,3.0015714E-3,1.871E-5,-4.241E-5,1.163E3,-7.175949E-2,4.9045985E-3,7.54E2,2.323E3,3.585648E-2,1.2443686E-2,6.32012E1,3.892E3,3.2961876E-3,-4.3936577E-2,-2.1719214E-2,-5.3021472E-2,3.9681327E-3,4.6712674E-2,3.849977E-2,-5.3979214E-2,-2.7055297E-2,-1.0558534E-2,-1.0432358E-2,9.725575E-3,-2.9175062E-2,2.3844652E-2,2.8267551E-2,-5.2146565E-2,-1.0965542E-2,-2.2436528E-2,-4.9502786E-2,-1.3698249E-2,-4.850821E-3,1.2630629E-2,-4.1327473E-2,-1.2992461E-2,8.074737E-3,-4.392615E-2,-5.2085533E-3,5.125193E-3,7.183339E-3,1.4808035E-2,-3.0888512E-3,-5.074036E-2],"split_indices":[5,6,8,13,13,8,6,8,13,6,12,14,13,13,1,13,13,12,1,8,1,11,13,2,5,13,13,5,5,6,13,0,0,0,0,0,0,0,0,0,0,0,0,0,0,0,0,0,0,0,0,0,0,0,0,0,0,0,0,0,0,0,0],"split_type":[0,0,0,0,0,0,0,0,0,0,0,0,0,0,0,0,0,0,0,0,0,0,0,0,0,0,0,0,0,0,0,0,0,0,0,0,0,0,0,0,0,0,0,0,0,0,0,0,0,0,0,0,0,0,0,0,0,0,0,0,0,0,0],"sum_hessian":[6.410975E3,9.108649E2,5.5001104E3,5.539932E2,3.5687173E2,6.89599E2,4.810511E3,5.2650024E2,2.749297E1,3.091979E2,4.7673805E1,1.6440192E2,5.251971E2,1.815903E3,2.9946084E3,8.311005E1,4.4339023E2,2.2705038E1,4.787932E0,2.6007727E2,4.9120632E1,4.0992817E1,6.68099E0,1.4831679E2,1.6085138E1,4.7371655E2,5.1480545E1,3.6679712E2,1.4491058E3,2.7070027E3,2.876057E2,1.1974869E0,8.191256E1,4.2440335E2,1.8986877E1,1.3906683E1,8.798354E0,1.1018811E0,3.686051E0,5.129639E1,2.087809E2,1.841298E1,3.0707653E1,4.1143227E0,3.6878494E1,1.5373807E0,5.1436095E0,1.0637084E2,4.194594E1,8.540746E0,7.544391E0,4.380261E2,3.5690453E1,1.4036542E1,3.7444004E1,3.6295578E2,3.8413463E0,1.1412306E3,3.0787527E2,2.105324E3,6.0167865E2,2.8012097E2,7.484768E0],"tree_param":{"num_deleted":"0","num_feature":"15","num_nodes":"63","size_leaf_vector":"1"}},{"base_weights":[-2.7618404E-3,-3.682722E-1,6.1317135E-2,-7.966456E-1,-3.244926E-1,1.597598E-2,2.0284311E-1,-8.1894433E-1,1.4652318E-2,-4.2042437E-1,-2.0488094E-1,-1.1054281E-2,2.1190326E-1,-1.9746198E-1,2.2546984E-1,-1.140503E0,-7.3827606E-1,-4.6007296E-1,2.7803144E-1,-3.7578565E-1,-1.3033463E-1,1.487331E-2,-2.0087297E-1,5.8667445E-1,1.6720252E-1,-1.03561394E-1,-1.0145754E0,2.4211846E-1,-2.0718801E-1,-6.409859E-2,-2.3203293E-2,-3.813363E-2,-1.6417314E-3,1.5842317E-2,-2.3892015E-2,1.9783411E-2,-4.1169915E-2,-2.6251381E-2,-1.1093702E-2,-5.7079736E-3,-6.421418E-2,-3.981048E-3,2.4697406E-3,-2.2166317E-2,-4.113544E-3,-1.6693206E-3,3.442475E-2,-7.224372E-3,9.986104E-3,-1.1333156E-3,-4.415941E-2,-1.4082195E-2,-5.8531422E-2,1.2992422E-2,-6.2021855E-3,-7.1948296E-3,-4.6835013E-2],"categories":[],"categories_nodes":[],"categories_segments":[],"categories_sizes":[],"default_left":[0,0,0,0,0,0,0,0,0,0,0,0,0,0,0,0,0,0,0,0,0,0,0,0,0,0,0,0,0,0,0,0,0,0,0,0,0,0,0,0,0,0,0,0,0,0,0,0,0,0,0,0,0,0,0,0,0],"id":6,"left_children":[1,3,5,7,9,11,13,15,-1,17,19,21,23,25,27,29,31,33,35,37,39,41,43,45,47,49,51,53,55,-1,-1,-1,-1,-1,-1,-1,-1,-1,-1,-1,-1,-1,-1,-1,-1,-1,-1,-1,-1,-1,-1,-1,-1,-1,-1,-1,-1],"loss_changes":[1.4996385E2,1.7652786E1,3.495498E1,2.3751068E0,9.876022E0,2.1858967E1,1.2016468E1,1.3984299E0,0E0,1.3443649E1,4.898821E0,1.7856583E1,8.284725E0,5.3615103E0,9.064995E0,8.87064E-1,1.2121086E0,6.437462E0,3.7531903E0,2.5806046E0,4.929229E0,1.0418516E1,1.2501652E1,3.3644142E0,4.5745106E0,4.0804625E0,4.972291E-1,7.8590393E0,2.0312457E0,0E0,0E0,0E0,0E0,0E0,0E0,0E0,0E0,0E0,0E0,0E0,0E0,0E0,0E0,0E0,0E0,0E0,0E0,0E0,0E0,0E0,0E0,0E0,0E0,0E0,0E0,0E0,0E0],"parents":[2147483647,0,0,1,1,2,2,3,3,4,4,5,5,6,6,7,7,9,9,10,10,11,11,12,12,13,13,14,14,15,15,16,16,17,17,18,18,19,19,20,20,21,21,22,22,23,23,24,24,25,25,26,26,27,27,28,28],"right_children":[2,4,6,8,10,12,14,16,-1,18,20,22,24,26,28,30,32,34,36,38,40,42,44,46,48,50,52,54,56,-1,-1,-1,-1,-1,-1,-1,-1,-1,-1,-1,-1,-1,-1,-1,-1,-1,-1,-1,-1,-1,-1,-1,-1,-1,-1,-1,-1],"split_conditions":[6.8080816E-3,2.3328064E-3,1.3505437E-2,8.574841E3,1.3287487E-3,2.1309275E-2,2.6490377E4,2.720926E-3,1.4652318E-2,2.235E3,-4.8569754E-1,1.617E3,-1.4E1,8.153445E3,2.1347146E0,4.16E1,1.7891389E0,-5.8E1,4.9765E-4,3E1,4.6001E-4,9.197726E-3,2.323E3,-2.1216671E0,-4.8778382E-1,3.282E3,2E1,3.361E3,5.9753954E-2,-6.409859E-2,-2.3203293E-2,-3.813363E-2,-1.6417314E-3,1.5842317E-2,-2.3892015E-2,1.9783411E-2,-4.1169915E-2,-2.6251381E-2,-1.1093702E-2,-5.7079736E-3,-6.421418E-2,-3.981048E-3,2.4697406E-3,-2.2166317E-2,-4.113544E-3,-1.6693206E-3,3.442475E-2,-7.224372E-3,9.986104E-3,-1.1333156E-3,-4.415941E-2,-1.4082195E-2,-5.8531422E-2,1.2992422E-2,-6.2021855E-3,-7.1948296E-3,-4.6835013E-2],"split_indices":[7,8,10,14,10,7,0,7,0,13,9,13,13,14,12,3,12,13,1,13,1,7,13,12,2,13,13,13,8,0,0,0,0,0,0,0,0,0,0,0,0,0,0,0,0,0,0,0,0,0,0,0,0,0,0,0,0],"split_type":[0,0,0,0,0,0,0,0,0,0,0,0,0,0,0,0,0,0,0,0,0,0,0,0,0,0,0,0,0,0,0,0,0,0,0,0,0,0,0,0,0,0,0,0,0,0,0,0,0,0,0,0,0,0,0,0,0],"sum_hessian":[6.4008564E3,9.54065E2,5.4467915E3,8.68695E1,8.671955E2,4.126033E3,1.3207583E3,8.537099E1,1.4985157E0,4.7983783E2,3.873577E2,3.6266428E3,4.9939053E2,7.024677E1,1.2505115E3,1.4486592E1,7.088439E1,4.5438547E2,2.5452372E1,1.164177E2,2.7093997E2,3.1916172E3,4.3502563E2,5.192518E1,4.4746533E2,6.401686E1,6.229913E0,1.2045991E3,4.5912422E1,1.1240578E1,3.2460148E0,6.84365E1,2.4478905E0,9.78266E0,4.4460278E2,2.357522E1,1.8771521E0,5.788129E1,5.853641E1,2.6827838E2,2.661588E0,8.5365E2,2.337967E3,1.4200098E2,2.9302463E2,7.418786E0,4.450639E1,4.194947E1,4.0551587E2,5.893116E1,5.0856996E0,1.5859594E0,4.643954E0,1.1492418E3,5.535727E1,4.3348793E1,2.5636275E0],"tree_param":{"num_deleted":"0","num_feature":"15","num_nodes":"57","size_leaf_vector":"1"}},{"base_weights":[-1.7332846E-3,-3.5893562E-1,5.543572E-2,-4.9247304E-1,-1.885317E-1,1.06671555E-2,1.7482774E-1,-5.285017E-1,2.7916843E-1,-3.1041437E-1,-3.3619475E-2,-1.736431E-2,2.1162301E-1,-1.9727921E-1,1.989405E-1,-7.831122E-1,-4.4330332E-1,5.113165E-1,-2.3561947E-1,-3.5210672E-1,1.8369177E-1,-6.7311555E-2,7.280899E-1,-7.0020957E-3,-4.855794E-1,5.238218E-1,1.7241403E-1,7.945956E-1,-2.6681137E-1,2.26799E-1,-3.4718182E-2,-3.4978226E-2,-6.1537948E-2,1.6909854E-2,-2.3069901E-2,1.11137135E-2,4.377298E-2,5.7166483E-4,-3.632498E-2,-2.8770527E-2,-1.3957973E-2,-9.969604E-4,3.6710862E-2,-7.828976E-3,1.4540984E-2,-3.3767018E-3,4.5223054E-2,1.1624491E-2,-1.2000622E-3,-5.0552584E-2,-1.7358646E-2,2.0433377E-2,4.9869385E-2,-5.2729836E-3,1.1193558E-2,4.770262E-2,3.4310122E-3,-1.0022166E-2,-4.4090226E-2,1.18411E-2,-2.041368E-2,2.2653115E-3,-2.6836557E-2],"categories":[],"categories_nodes":[],"categories_segments":[],"categories_sizes":[],"default_left":[0,0,0,0,0,0,0,0,0,0,0,0,0,0,0,0,0,0,0,0,0,0,0,0,0,0,0,0,0,0,0,0,0,0,0,0,0,0,0,0,0,0,0,0,0,0,0,0,0,0,0,0,0,0,0,0,0,0,0,0,0,0,0],"id":7,"left_children":[1,3,5,7,9,11,13,15,17,19,21,23,25,27,29,31,33,35,37,39,41,43,45,47,49,51,53,55,57,59,61,-1,-1,-1,-1,-1,-1,-1,-1,-1,-1,-1,-1,-1,-1,-1,-1,-1,-1,-1,-1,-1,-1,-1,-1,-1,-1,-1,-1,-1,-1,-1,-1],"loss_changes":[1.3070245E2,2.0000946E1,2.9488754E1,1.3893929E1,7.3453684E0,2.261383E1,1.353931E1,9.907761E0,2.834598E0,4.553837E0,4.480332E0,1.7091171E1,5.925232E0,6.5616493E0,9.209091E0,3.52314E0,5.197586E0,1.4860673E0,9.4734216E-1,3.1184483E0,1.9892318E0,5.361163E0,1.0993009E0,1.4043391E1,5.196316E0,2.5557966E0,6.2876034E0,6.618252E-1,3.3654532E0,8.136658E0,6.108393E0,0E0,0E0,0E0,0E0,0E0,0E0,0E0,0E0,0E0,0E0,0E0,0E0,0E0,0E0,0E0,0E0,0E0,0E0,0E0,0E0,0E0,0E0,0E0,0E0,0E0,0E0,0E0,0E0,0E0,0E0,0E0,0E0],"parents":[2147483647,0,0,1,1,2,2,3,3,4,4,5,5,6,6,7,7,8,8,9,9,10,10,11,11,12,12,13,13,14,14,15,15,16,16,17,17,18,18,19,19,20,20,21,21,22,22,23,23,24,24,25,25,26,26,27,27,28,28,29,29,30,30],"right_children":[2,4,6,8,10,12,14,16,18,20,22,24,26,28,30,32,34,36,38,40,42,44,46,48,50,52,54,56,58,60,62,-1,-1,-1,-1,-1,-1,-1,-1,-1,-1,-1,-1,-1,-1,-1,-1,-1,-1,-1,-1,-1,-1,-1,-1,-1,-1,-1,-1,-1,-1,-1,-1],"split_conditions":[6.631096E-3,5.2257378E1,1.1295871E-2,2.235E3,3.0771346E4,2.1309275E-2,2.785495E4,4.3669357E-3,-1.6150287E-3,7.069376E1,1.5472E-4,3.892E3,-1.4E1,5.3163467E1,1.156E-4,3.58E2,-5.8E1,2.4394022E-1,3.17E-6,-5.202695E-1,2.83E2,1.4814258E2,4.7486332E4,-2.2E1,3.976E3,-1.3245628E-3,2.7990019E1,1.8788707E4,8.153445E3,2.1347146E0,2.1172598E1,-3.4978226E-2,-6.1537948E-2,1.6909854E-2,-2.3069901E-2,1.11137135E-2,4.377298E-2,5.7166483E-4,-3.632498E-2,-2.8770527E-2,-1.3957973E-2,-9.969604E-4,3.6710862E-2,-7.828976E-3,1.4540984E-2,-3.3767018E-3,4.5223054E-2,1.1624491E-2,-1.2000622E-3,-5.0552584E-2,-1.7358646E-2,2.0433377E-2,4.9869385E-2,-5.2729836E-3,1.1193558E-2,4.770262E-2,3.4310122E-3,-1.0022166E-2,-4.4090226E-2,1.18411E-2,-2.041368E-2,2.2653115E-3,-2.6836557E-2],"split_indices":[7,6,10,13,0,7,0,7,10,6,11,13,13,6,11,13,13,12,11,12,13,14,0,13,13,10,6,0,14,12,14,0,0,0,0,0,0,0,0,0,0,0,0,0,0,0,0,0,0,0,0,0,0,0,0,0,0,0,0,0,0,0,0],"split_type":[0,0,0,0,0,0,0,0,0,0,0,0,0,0,0,0,0,0,0,0,0,0,0,0,0,0,0,0,0,0,0,0,0,0,0,0,0,0,0,0,0,0,0,0,0,0,0,0,0,0,0,0,0,0,0,0,0,0,0,0,0,0,0],"sum_hessian":[6.39845E3,8.8203796E2,5.516412E3,4.934527E2,3.8858527E2,4.0128125E3,1.5035997E3,4.7174173E2,2.1710985E1,2.1691551E2,1.7166974E2,3.522386E3,4.9042636E2,9.106759E1,1.4125321E3,1.1622333E2,3.5551837E2,1.4967848E1,6.743138E0,2.0030159E2,1.6613924E1,1.6527107E2,6.3986726E0,3.4471118E3,7.527416E1,5.3341183E1,4.370852E2,5.282669E0,8.578492E1,1.2620863E3,1.5044582E2,1.0010308E2,1.6120253E1,7.6449995E0,3.4787338E2,9.242179E0,5.725669E0,5.135317E0,1.607821E0,4.76251E1,1.5267648E2,1.2831522E1,3.782403E0,1.3274562E2,3.2525448E1,1.2730287E0,5.1256437E0,2.2761993E2,3.219492E3,1.4378809E1,6.089535E1,4.4406155E1,8.935026E0,6.812947E1,3.6895572E2,4.073729E0,1.2089401E0,7.862581E1,7.1591144E0,1.2430944E3,1.8991987E1,1.3054565E2,1.9900152E1],"tree_param":{"num_deleted":"0","num_feature":"15","num_nodes":"63","size_leaf_vector":"1"}},{"base_weights":[-5.013284E-3,-2.548133E-1,6.79119E-2,-4.5233354E-1,-1.6857989E-1,-7.523221E-3,1.3387126E-1,-5.411652E-1,-2.1137579E-1,-3.5848796E-1,-8.409168E-2,-5.1093314E-2,1.9505267E-1,1.4952141E-1,-1.8027185E-1,-6.553546E-1,-3.6679614E-1,-2.7387676E-1,2.95823E-1,-3.8727745E-1,2.53565E-1,-5.0032247E-2,-5.013071E-1,-3.8870737E-2,-4.6993518E-1,-1.1674456E-2,2.6782852E-1,5.357932E-2,1.862104E-1,-5.2640423E-2,-6.049657E-1,-3.3791628E-2,8.647986E-3,-1.5917946E-2,-3.2700922E-2,-1.8469462E-2,-4.28445E-3,4.773217E-2,4.135694E-3,-3.550027E-2,-1.68508E-2,2.665301E-2,-3.9105024E-2,-9.201296E-3,1.2848137E-3,-3.7619438E-2,-9.258411E-3,4.4918484E-3,-3.4254787E-3,-3.988603E-2,-7.5898655E-3,1.6764335E-2,-1.0636966E-2,1.1255612E-2,3.2358546E-2,3.7989572E-3,-1.1870741E-2,6.096009E-3,1.2226453E-2,-1.9554544E-2,6.5419055E-3,-3.8364988E-2,2.26154E-3],"categories":[],"categories_nodes":[],"categories_segments":[],"categories_sizes":[],"default_left":[0,0,0,0,0,0,0,0,0,0,0,0,0,0,0,0,0,0,0,0,0,0,0,0,0,0,0,0,0,0,0,0,0,0,0,0,0,0,0,0,0,0,0,0,0,0,0,0,0,0,0,0,0,0,0,0,0,0,0,0,0,0,0],"id":8,"left_children":[1,3,5,7,9,11,13,15,17,19,21,23,25,27,29,31,33,35,37,39,41,43,45,47,49,51,53,55,57,59,61,-1,-1,-1,-1,-1,-1,-1,-1,-1,-1,-1,-1,-1,-1,-1,-1,-1,-1,-1,-1,-1,-1,-1,-1,-1,-1,-1,-1,-1,-1,-1,-1],"loss_changes":[1.167024E2,2.458075E1,2.467413E1,9.2895355E0,1.6163671E1,2.0435434E1,1.3033745E1,6.1383057E0,3.8844633E0,5.568634E0,9.919447E0,9.735769E0,6.1690245E0,8.862579E0,6.79783E0,3.3789597E0,1.5870934E0,1.8976564E0,1.8366188E0,4.5767365E0,4.628991E0,6.581223E0,4.044406E0,7.0725946E0,5.50325E0,7.5825715E0,4.7668686E0,4.5720778E0,6.8049583E0,6.135464E0,3.0977936E0,0E0,0E0,0E0,0E0,0E0,0E0,0E0,0E0,0E0,0E0,0E0,0E0,0E0,0E0,0E0,0E0,0E0,0E0,0E0,0E0,0E0,0E0,0E0,0E0,0E0,0E0,0E0,0E0,0E0,0E0,0E0,0E0],"parents":[2147483647,0,0,1,1,2,2,3,3,4,4,5,5,6,6,7,7,8,8,9,9,10,10,11,11,12,12,13,13,14,14,15,15,16,16,17,17,18,18,19,19,20,20,21,21,22,22,23,23,24,24,25,25,26,26,27,27,28,28,29,29,30,30],"right_children":[2,4,6,8,10,12,14,16,18,20,22,24,26,28,30,32,34,36,38,40,42,44,46,48,50,52,54,56,58,60,62,-1,-1,-1,-1,-1,-1,-1,-1,-1,-1,-1,-1,-1,-1,-1,-1,-1,-1,-1,-1,-1,-1,-1,-1,-1,-1,-1,-1,-1,-1,-1,-1],"split_conditions":[7.92648E-3,4.030356E-3,4.7557236E1,5.5674583E1,4.4448387E1,2.1309275E-2,3.361E3,5.444325E-3,9.59E2,2.323E3,7.0377056E3,3.892E3,3.1317165E1,3.71864E5,9.5348424E-1,2.563E3,4.75255E3,2.409986E4,1.057E3,2.8961979E1,3.774E3,3.5340916E-3,3.7491477E-1,-6E0,4.66E0,-7.05254E-2,1.614611E1,1.5414274E0,1.8E-2,-7.637585E-1,1.8147402E-2,-3.3791628E-2,8.647986E-3,-1.5917946E-2,-3.2700922E-2,-1.8469462E-2,-4.28445E-3,4.773217E-2,4.135694E-3,-3.550027E-2,-1.68508E-2,2.665301E-2,-3.9105024E-2,-9.201296E-3,1.2848137E-3,-3.7619438E-2,-9.258411E-3,4.4918484E-3,-3.4254787E-3,-3.988603E-2,-7.5898655E-3,1.6764335E-2,-1.0636966E-2,1.1255612E-2,3.2358546E-2,3.7989572E-3,-1.1870741E-2,6.096009E-3,1.2226453E-2,-1.9554544E-2,6.5419055E-3,-3.8364988E-2,2.26154E-3],"split_indices":[7,8,6,6,6,7,13,7,13,13,14,13,6,0,12,13,14,0,13,6,13,5,12,13,4,10,14,12,4,12,7,0,0,0,0,0,0,0,0,0,0,0,0,0,0,0,0,0,0,0,0,0,0,0,0,0,0,0,0,0,0,0,0],"split_type":[0,0,0,0,0,0,0,0,0,0,0,0,0,0,0,0,0,0,0,0,0,0,0,0,0,0,0,0,0,0,0,0,0,0,0,0,0,0,0,0,0,0,0,0,0,0,0,0,0,0,0,0,0,0,0,0,0,0,0,0,0,0,0],"sum_hessian":[6.4043867E3,1.4466151E3,4.9577715E3,4.3833963E2,1.0082755E3,2.3131729E3,2.6445989E3,3.1935876E2,1.1898087E2,3.0945535E2,6.988201E2,1.9043354E3,4.0883737E2,2.5196E3,1.24998825E2,1.9131404E2,1.2804472E2,1.063372E2,1.2643676E1,2.95904E2,1.3551351E1,6.471129E2,5.1707226E1,1.851401E3,5.2934494E1,1.0667002E2,3.0216736E2,6.9766327E2,1.8219368E3,9.69783E1,2.8020525E1,1.8687805E2,4.435996E0,1.1137143E2,1.6673296E1,6.989828E1,3.6438915E1,2.2398005E0,1.0403875E1,3.8105164E1,2.5779883E2,1.1053609E1,2.4977417E0,2.3314941E2,4.139635E2,2.8049782E1,2.3657444E1,3.461596E2,1.5052413E3,2.5329453E1,2.7605042E1,3.8891163E1,6.7778854E1,2.7301733E2,2.9149998E1,6.4848395E2,4.917938E1,8.6807056E2,9.5386615E2,3.3693905E1,6.3284397E1,2.2278233E1,5.7422934E0],"tree_param":{"num_deleted":"0","num_feature":"15","num_nodes":"63","size_leaf_vector":"1"}},{"base_weights":[2.5581962E-3,-3.1492344E-1,5.7678603E-2,-4.5021865E-1,-1.7062254E-1,-2.4576224E-2,1.125422E-1,-4.8486868E-1,2.595953E-1,-2.927475E-1,-5.63598E-2,-8.733527E-2,1.3953815E-1,-2.153823E-2,1.494473E-1,-7.1787155E-1,-3.9336124E-1,3.72539E-1,-4.367927E-2,-3.5398993E-1,6.552801E-2,-1.9137138E-1,8.073629E-2,-7.369188E-2,-6.0783654E-1,-7.3016196E-1,1.5477708E-1,-1.1020018E-2,-5.695646E-1,1.740407E-1,-6.512628E-2,1.4154442E-2,-3.6944173E-2,-3.136897E-2,-1.5730094E-2,-2.2923358E-2,2.926345E-2,-1.9000757E-2,1.2760065E-2,-7.4184122E-3,2.1235544E-2,-2.211008E-2,3.024802E-4,6.9445334E-3,-2.1113364E-2,-1.2095688E-2,-2.3714823E-3,1.8878328E-2,-3.5630625E-2,7.390031E-3,-4.745131E-2,1.8518684E-2,5.964052E-3,7.709406E-4,-1.0307493E-2,-4.8994776E-2,-1.6126063E-2,1.2126361E-2,6.419122E-3,-5.5476645E-4,-2.238001E-2],"categories":[],"categories_nodes":[],"categories_segments":[],"categories_sizes":[],"default_left":[0,0,0,0,0,0,0,0,0,0,0,0,0,0,0,0,0,0,0,0,0,0,0,0,0,0,0,0,0,0,0,0,0,0,0,0,0,0,0,0,0,0,0,0,0,0,0,0,0,0,0,0,0,0,0,0,0,0,0,0,0],"id":9,"left_children":[1,3,5,7,9,11,13,15,17,19,21,23,25,27,29,31,33,35,-1,37,39,41,43,45,47,49,51,53,55,57,59,-1,-1,-1,-1,-1,-1,-1,-1,-1,-1,-1,-1,-1,-1,-1,-1,-1,-1,-1,-1,-1,-1,-1,-1,-1,-1,-1,-1,-1,-1],"loss_changes":[1.1239261E2,1.8472412E1,2.469854E1,1.2171234E1,6.4215326E0,2.2572817E1,1.6248158E1,9.681168E0,3.326181E0,4.911171E0,4.450214E0,1.1211723E1,8.148654E0,4.083241E0,1.359724E1,2.9551315E0,6.027565E0,4.1613536E0,0E0,3.1157513E0,2.626344E0,5.9950356E0,3.5566492E0,6.817518E0,4.435034E0,2.1801405E0,4.5222416E0,3.5996282E0,1.0362797E0,7.1923065E0,5.480931E0,0E0,0E0,0E0,0E0,0E0,0E0,0E0,0E0,0E0,0E0,0E0,0E0,0E0,0E0,0E0,0E0,0E0,0E0,0E0,0E0,0E0,0E0,0E0,0E0,0E0,0E0,0E0,0E0,0E0,0E0],"parents":[2147483647,0,0,1,1,2,2,3,3,4,4,5,5,6,6,7,7,8,8,9,9,10,10,11,11,12,12,13,13,14,14,15,15,16,16,17,17,19,19,20,20,21,21,22,22,23,23,24,24,25,25,26,26,27,27,28,28,29,29,30,30],"right_children":[2,4,6,8,10,12,14,16,18,20,22,24,26,28,30,32,34,36,-1,38,40,42,44,46,48,50,52,54,56,58,60,-1,-1,-1,-1,-1,-1,-1,-1,-1,-1,-1,-1,-1,-1,-1,-1,-1,-1,-1,-1,-1,-1,-1,-1,-1,-1,-1,-1,-1,-1],"split_conditions":[6.8080816E-3,5.10336E1,4.5567787E1,2.235E3,-2.7610278E-1,1.7438002E-2,7.1875732E-3,3.3868116E-3,4.5941835E-3,7.86E2,3.1483432E-3,3.892E3,8.215232E-3,7.2673496E3,2.3264E-4,-5.8E1,3.749129E1,2.6167114E-3,-4.367927E-2,6.919599E1,5.8206776E1,5.0062683E1,7.2673496E3,8.178832E-3,6.94E-5,-5.939869E-1,-1E1,1.617E3,4.499E-5,4.871E-5,6.6742E-4,1.4154442E-2,-3.6944173E-2,-3.136897E-2,-1.5730094E-2,-2.2923358E-2,2.926345E-2,-1.9000757E-2,1.2760065E-2,-7.4184122E-3,2.1235544E-2,-2.211008E-2,3.024802E-4,6.9445334E-3,-2.1113364E-2,-1.2095688E-2,-2.3714823E-3,1.8878328E-2,-3.5630625E-2,7.390031E-3,-4.745131E-2,1.8518684E-2,5.964052E-3,7.709406E-4,-1.0307493E-2,-4.8994776E-2,-1.6126063E-2,1.2126361E-2,6.419122E-3,-5.5476645E-4,-2.238001E-2],"split_indices":[7,6,6,13,9,7,8,8,5,13,5,13,5,14,1,13,6,5,0,6,6,14,14,7,1,12,13,13,1,1,1,0,0,0,0,0,0,0,0,0,0,0,0,0,0,0,0,0,0,0,0,0,0,0,0,0,0,0,0,0,0],"split_type":[0,0,0,0,0,0,0,0,0,0,0,0,0,0,0,0,0,0,0,0,0,0,0,0,0,0,0,0,0,0,0,0,0,0,0,0,0,0,0,0,0,0,0,0,0,0,0,0,0,0,0,0,0,0,0,0,0,0,0,0,0],"sum_hessian":[6.420501E3,9.491113E2,5.4713896E3,4.887468E2,4.603645E2,2.1894243E3,3.2819653E3,4.663009E2,2.2445883E1,2.2177138E2,2.3859312E2,1.5841113E3,6.0531287E2,7.084613E2,2.5735042E3,1.2956027E2,3.3674063E2,2.1021885E1,1.423999E0,1.8940678E2,3.2364594E1,1.2001099E2,1.18582146E2,1.5447616E3,3.9349766E1,9.615794E0,5.956971E2,6.9612085E2,1.2340466E1,2.3090415E3,2.6446252E2,2.407341E0,1.2715294E2,8.303939E1,2.5370125E2,4.049153E0,1.697273E1,1.8200746E2,7.399331E0,2.0652685E1,1.171191E1,5.230975E1,6.770124E1,1.06942E2,1.16401415E1,2.0748865E2,1.337273E3,3.531638E0,3.5818127E1,1.9835553E0,7.6322393E0,8.287782E1,5.128192E2,6.138668E2,8.2254005E1,3.522769E0,8.817697E0,9.2189905E2,1.3871425E3,2.3262877E2,3.1833763E1],"tree_param":{"num_deleted":"0","num_feature":"15","num_nodes":"61","size_leaf_vector":"1"}},{"base_weights":[-2.2691458E-3,-2.246888E-1,6.998185E-2,-3.9058632E-1,-1.3716877E-1,2.0927332E-2,1.4279178E-1,-4.7959155E-1,-1.8228161E-1,-1.1671099E-1,-6.79653E-1,-4.494886E-3,2.0659667E-1,1.5443757E-1,-3.399366E-1,-9.652029E-1,-4.5077223E-1,-4.074455E-1,-6.606865E-2,-1.4644642E-1,1.477567E-1,1.8826859E-1,-7.668147E-1,6.894198E-2,-6.425074E-2,-1.3139693E-1,2.4302712E-1,-1.09416045E-1,1.6870208E-1,-4.4491667E-1,2.2851585E-1,-5.0979007E-2,4.0100887E-4,2.1208247E-2,-2.3017544E-2,-2.8149957E-2,-3.386857E-3,-6.604952E-3,1.4487052E-2,-5.920866E-3,-1.710683E-2,-1.9560168E-2,1.1568576E-2,-2.6213933E-2,3.240481E-2,-5.9571434E-2,-2.8303528E-2,5.090531E-4,7.4347407E-3,-7.755313E-3,1.8218205E-4,5.7076984E-3,-2.367007E-2,3.1988297E-2,1.0449569E-2,-3.4061305E-3,-4.7777817E-2,8.896961E-3,-7.1993917E-3,-3.2285973E-2,-9.519036E-3,3.2812707E-2,-3.5012376E-2],"categories":[],"categories_nodes":[],"categories_segments":[],"categories_sizes":[],"default_left":[0,0,0,0,0,0,0,0,0,0,0,0,0,0,0,0,0,0,0,0,0,0,0,0,0,0,0,0,0,0,0,0,0,0,0,0,0,0,0,0,0,0,0,0,0,0,0,0,0,0,0,0,0,0,0,0,0,0,0,0,0,0,0],"id":10,"left_children":[1,3,5,7,9,11,13,15,17,19,21,23,25,27,29,31,33,35,37,39,41,43,45,47,49,51,53,55,57,59,61,-1,-1,-1,-1,-1,-1,-1,-1,-1,-1,-1,-1,-1,-1,-1,-1,-1,-1,-1,-1,-1,-1,-1,-1,-1,-1,-1,-1,-1,-1,-1,-1],"loss_changes":[1.0281735E2,2.272377E1,1.724576E1,9.947342E0,1.133515E1,1.3625771E1,1.0980064E1,4.8633957E0,4.255153E0,7.8254967E0,2.9562435E0,1.1150174E1,4.312682E0,7.164665E0,2.852848E0,1.0842514E0,3.2061768E0,2.8954315E0,2.602186E0,4.855137E0,4.632851E0,1.7142767E0,2.221529E0,5.3408437E0,8.642158E0,2.9492202E0,4.1087475E0,3.3586664E0,5.2296104E0,1.8834195E0,3.5770512E0,0E0,0E0,0E0,0E0,0E0,0E0,0E0,0E0,0E0,0E0,0E0,0E0,0E0,0E0,0E0,0E0,0E0,0E0,0E0,0E0,0E0,0E0,0E0,0E0,0E0,0E0,0E0,0E0,0E0,0E0,0E0,0E0],"parents":[2147483647,0,0,1,1,2,2,3,3,4,4,5,5,6,6,7,7,8,8,9,9,10,10,11,11,12,12,13,13,14,14,15,15,16,16,17,17,18,18,19,19,20,20,21,21,22,22,23,23,24,24,25,25,26,26,27,27,28,28,29,29,30,30],"right_children":[2,4,6,8,10,12,14,16,18,20,22,24,26,28,30,32,34,36,38,40,42,44,46,48,50,52,54,56,58,60,62,-1,-1,-1,-1,-1,-1,-1,-1,-1,-1,-1,-1,-1,-1,-1,-1,-1,-1,-1,-1,-1,-1,-1,-1,-1,-1,-1,-1,-1,-1,-1,-1],"split_conditions":[8.178832E-3,5.6860894E-3,4.1757706E-3,3.2031012E-3,7.2673496E3,2.3204861E-2,2.4809E-4,2.720926E-3,-3.8750547E-1,1.3505437E-2,-5.827E-5,4.736E-5,1.9E-3,2.785495E4,3.336183E0,1.3605326E0,-4.0679E-4,2.301148E4,5.328E-5,5.632E-5,4.508065E-3,-2.907436E-1,-1.26E-6,-3.823523E-1,1.2099881E-2,-1.8842174E-1,1.2688427E-2,8.153445E3,1.9909788E0,2.0119257E0,1.9353926E-2,-5.0979007E-2,4.0100887E-4,2.1208247E-2,-2.3017544E-2,-2.8149957E-2,-3.386857E-3,-6.604952E-3,1.4487052E-2,-5.920866E-3,-1.710683E-2,-1.9560168E-2,1.1568576E-2,-2.6213933E-2,3.240481E-2,-5.9571434E-2,-2.8303528E-2,5.090531E-4,7.4347407E-3,-7.755313E-3,1.8218205E-4,5.7076984E-3,-2.367007E-2,3.1988297E-2,1.0449569E-2,-3.4061305E-3,-4.7777817E-2,8.896961E-3,-7.1993917E-3,-3.2285973E-2,-9.519036E-3,3.2812707E-2,-3.5012376E-2],"split_indices":[7,7,10,10,14,7,11,7,9,10,11,1,3,0,12,12,1,0,11,11,8,9,11,12,7,9,5,14,12,14,7,0,0,0,0,0,0,0,0,0,0,0,0,0,0,0,0,0,0,0,0,0,0,0,0,0,0,0,0,0,0,0,0],"split_type":[0,0,0,0,0,0,0,0,0,0,0,0,0,0,0,0,0,0,0,0,0,0,0,0,0,0,0,0,0,0,0,0,0,0,0,0,0,0,0,0,0,0,0,0,0,0,0,0,0,0,0,0,0,0,0,0,0,0,0,0,0,0,0],"sum_hessian":[6.396098E3,1.5677572E3,4.8283413E3,5.402431E2,1.0275142E3,2.8855415E3,1.9427997E3,3.7759888E2,1.6264423E2,9.913444E2,3.6169735E1,2.5388877E3,3.4665378E2,1.8976979E3,4.510177E1,1.9333536E1,3.5826535E2,5.4514927E1,1.08129295E2,8.9154926E2,9.979512E1,3.1950204E0,3.2974712E1,1.1389828E3,1.3999049E3,3.3474834E1,3.1317896E2,9.698961E1,1.8007083E3,3.8254387E1,6.8473825E0,1.8265356E1,1.06818E0,3.4110355E0,3.548543E2,3.6941837E1,1.7573092E1,9.17342E1,1.6395096E1,7.812538E2,1.1029549E2,1.2908912E1,8.688621E1,1.1981727E0,1.9968476E0,9.000917E0,2.3973797E1,6.564477E2,4.825351E2,5.9816394E2,8.0174097E2,1.9872837E1,1.36019945E1,2.3338306E1,2.8984064E2,9.350679E1,3.4828196E0,1.7494586E3,5.1249657E1,2.0525229E1,1.7729158E1,4.889126E0,1.9582567E0],"tree_param":{"num_deleted":"0","num_feature":"15","num_nodes":"63","size_leaf_vector":"1"}},{"base_weights":[-1.7539084E-4,-2.2315629E-1,6.482662E-2,-3.7622088E-1,-1.3251467E-1,7.493693E-2,-4.0626037E-1,-5.4047966E-1,-2.082899E-1,-2.9413062E-1,-5.690775E-2,2.7216434E-2,1.412979E-1,-2.2834322E-1,-8.737047E-1,-5.690628E-1,4.2292565E-1,-3.031558E-1,-1.8556887E-2,-3.684835E-1,-1.085423E-1,-3.092282E-1,-1.5921405E-2,1.6270672E-1,-3.4802323E-3,1.5110329E-1,-2.738334E-1,-4.305266E-1,1.2974049E-1,-1.1019833E0,7.511282E-2,-2.5375182E-2,-4.924017E-2,-9.368753E-3,3.857967E-2,-2.3790961E-2,-1.0716473E-2,-7.950328E-3,1.3318047E-2,-1.654716E-2,-4.275013E-2,-2.3676718E-2,-1.530976E-4,3.8187765E-2,-1.8222107E-2,-2.4918356E-5,-4.557451E-2,6.3717896E-3,2.1878973E-2,-1.4081424E-3,6.6681677E-3,8.037416E-3,-7.2631277E-3,-8.843625E-3,-3.5592273E-2,-4.2602416E-2,-1.0541084E-2,2.0409709E-2,-6.106074E-3,-6.445023E-2,-1.4823857E-2,2.586005E-2,-2.2610474E-2],"categories":[],"categories_nodes":[],"categories_segments":[],"categories_sizes":[],"default_left":[0,0,0,0,0,0,0,0,0,0,0,0,0,0,0,0,0,0,0,0,0,0,0,0,0,0,0,0,0,0,0,0,0,0,0,0,0,0,0,0,0,0,0,0,0,0,0,0,0,0,0,0,0,0,0,0,0,0,0,0,0,0,0],"id":11,"left_children":[1,3,5,7,9,11,13,15,17,19,21,23,25,27,29,31,33,35,37,39,41,43,45,47,49,51,53,55,57,59,61,-1,-1,-1,-1,-1,-1,-1,-1,-1,-1,-1,-1,-1,-1,-1,-1,-1,-1,-1,-1,-1,-1,-1,-1,-1,-1,-1,-1,-1,-1,-1,-1],"loss_changes":[9.254513E1,1.9945152E1,2.3576889E1,1.4658035E1,1.1062581E1,1.5325779E1,8.452156E0,7.6776733E0,4.7894487E0,3.9443798E0,6.39622E0,1.1717173E1,8.282814E0,5.609045E0,6.2178917E0,6.223778E0,1.9225584E0,2.6209354E0,3.6385057E0,3.4745846E0,3.2328475E0,5.399309E0,7.3688083E0,4.989257E0,7.764697E0,5.679058E0,1.8733523E0,4.381875E0,2.0449767E0,3.0670357E0,1.7327299E0,0E0,0E0,0E0,0E0,0E0,0E0,0E0,0E0,0E0,0E0,0E0,0E0,0E0,0E0,0E0,0E0,0E0,0E0,0E0,0E0,0E0,0E0,0E0,0E0,0E0,0E0,0E0,0E0,0E0,0E0,0E0,0E0],"parents":[2147483647,0,0,1,1,2,2,3,3,4,4,5,5,6,6,7,7,8,8,9,9,10,10,11,11,12,12,13,13,14,14,15,15,16,16,17,17,18,18,19,19,20,20,21,21,22,22,23,23,24,24,25,25,26,26,27,27,28,28,29,29,30,30],"right_children":[2,4,6,8,10,12,14,16,18,20,22,24,26,28,30,32,34,36,38,40,42,44,46,48,50,52,54,56,58,60,62,-1,-1,-1,-1,-1,-1,-1,-1,-1,-1,-1,-1,-1,-1,-1,-1,-1,-1,-1,-1,-1,-1,-1,-1,-1,-1,-1,-1,-1,-1,-1,-1],"split_conditions":[7.92648E-3,5.6860894E-3,3.892E3,5.0911995E1,4.520679E1,3.3649115E-3,1.8481E-4,2.563E3,3.72192E4,4.5806956E-1,7.858454E3,-5E0,2.4809E-4,1.9947365E-1,1.7053792E-2,4.6E2,4.8227715E-3,1.56E0,3.03577E-3,5.328E-5,6.2461877E-3,-2.7E1,6.8826615E-3,2.423321E-2,2.1309275E-2,3.361E3,6.770625E-1,-1.682E-5,5.0246125E5,4.188E3,1.3829789E-2,-2.5375182E-2,-4.924017E-2,-9.368753E-3,3.857967E-2,-2.3790961E-2,-1.0716473E-2,-7.950328E-3,1.3318047E-2,-1.654716E-2,-4.275013E-2,-2.3676718E-2,-1.530976E-4,3.8187765E-2,-1.8222107E-2,-2.4918356E-5,-4.557451E-2,6.3717896E-3,2.1878973E-2,-1.4081424E-3,6.6681677E-3,8.037416E-3,-7.2631277E-3,-8.843625E-3,-3.5592273E-2,-4.2602416E-2,-1.0541084E-2,2.0409709E-2,-6.106074E-3,-6.445023E-2,-1.4823857E-2,2.586005E-2,-2.2610474E-2],"split_indices":[7,7,13,6,6,10,1,13,0,12,0,13,11,9,7,13,7,3,5,11,7,13,5,7,7,13,2,11,0,13,5,0,0,0,0,0,0,0,0,0,0,0,0,0,0,0,0,0,0,0,0,0,0,0,0,0,0,0,0,0,0,0,0],"split_type":[0,0,0,0,0,0,0,0,0,0,0,0,0,0,0,0,0,0,0,0,0,0,0,0,0,0,0,0,0,0,0,0,0,0,0,0,0,0,0,0,0,0,0,0,0,0,0,0,0,0,0,0,0,0,0,0,0,0,0,0,0,0,0],"sum_hessian":[6.382975E3,1.440183E3,4.942792E3,5.344753E2,9.057077E2,4.8397637E3,1.0302836E2,2.6907034E2,2.6540494E2,2.877431E2,6.179646E2,2.8161018E3,2.023662E3,7.570301E1,2.7325342E1,2.6171484E2,7.355481E0,1.7653847E2,8.886648E1,2.0473424E2,8.300885E1,8.5439095E1,5.325255E2,5.193725E2,2.2967292E3,1.9775874E3,4.6074543E1,4.8254795E1,2.744822E1,2.1895916E1,5.429426E0,2.2989474E2,3.1820107E1,2.8425455E0,4.5129356E0,5.8489E1,1.1804948E2,5.9820168E1,2.904631E1,1.9162825E2,1.3105998E1,1.7828354E1,6.51805E1,3.553354E0,8.188574E1,5.244935E2,8.032008E0,4.6160428E2,5.776819E1,1.9464419E3,3.5028748E2,1.9156998E3,6.1887585E1,3.887316E1,7.2013817E0,1.5547504E1,3.270729E1,1.2741149E1,1.470707E1,1.7282946E1,4.6129694E0,2.9638412E0,2.465585E0],"tree_param":{"num_deleted":"0","num_feature":"15","num_nodes":"63","size_leaf_vector":"1"}},{"base_weights":[2.9830441E-3,-2.1403126E-1,6.604922E-2,-3.5481673E-1,-1.3059223E-1,7.5143985E-2,-3.507278E-1,-5.0868255E-1,-1.7848253E-1,-1.0962794E-1,-6.3281286E-1,-2.5061775E-2,1.0746278E-1,-6.7794585E-1,-5.258868E-2,5.40619E-1,-5.3227407E-1,-3.7588435E-1,-9.684979E-2,-3.8458437E-1,-6.904093E-2,-7.4948096E-1,1.345581E-1,-1.2583207E-1,4.538186E-2,2.2772866E-1,8.2199685E-2,-3.856726E-1,-9.2498004E-1,-1.837343E-1,7.6236266E-1,-2.1737004E-2,5.1147457E-2,-2.7793093E-2,2.65825E-2,-2.2152651E-2,5.834189E-3,4.148143E-2,-5.797025E-3,4.2760237E-3,-2.1518152E-2,-1.0427475E-2,-7.1395765E-4,-2.815489E-2,-5.194965E-2,4.053829E-2,-2.6826615E-2,7.4208254E-4,-1.4907333E-2,1.2599758E-3,3.0330336E-2,8.864366E-3,2.332759E-2,2.039317E-3,9.628294E-3,6.5103746E-3,-2.90866E-2,-5.7591405E-2,-1.6284069E-2,1.0620239E-2,-1.6938856E-2,1.0716729E-3,5.2588828E-2],"categories":[],"categories_nodes":[],"categories_segments":[],"categories_sizes":[],"default_left":[0,0,0,0,0,0,0,0,0,0,0,0,0,0,0,0,0,0,0,0,0,0,0,0,0,0,0,0,0,0,0,0,0,0,0,0,0,0,0,0,0,0,0,0,0,0,0,0,0,0,0,0,0,0,0,0,0,0,0,0,0,0,0],"id":12,"left_children":[1,3,5,7,9,11,13,15,17,19,21,23,25,27,29,31,33,35,37,39,41,43,45,47,49,51,53,55,57,59,61,-1,-1,-1,-1,-1,-1,-1,-1,-1,-1,-1,-1,-1,-1,-1,-1,-1,-1,-1,-1,-1,-1,-1,-1,-1,-1,-1,-1,-1,-1,-1,-1],"loss_changes":[8.761416E1,1.6886559E1,1.882764E1,1.4446976E1,9.476419E0,1.572579E1,1.0315387E1,7.3576355E0,4.011877E0,9.699374E0,3.3346052E0,8.416189E0,1.1135475E1,3.2894726E0,6.1895924E0,3.6324794E0,7.317848E0,2.4718246E0,3.2634559E0,2.4445858E0,5.808138E0,1.1149902E0,2.9829023E0,1.1827223E1,7.891606E0,7.5877953E0,1.3866165E1,2.5888808E0,3.248373E0,3.115994E0,1.70158E0,0E0,0E0,0E0,0E0,0E0,0E0,0E0,0E0,0E0,0E0,0E0,0E0,0E0,0E0,0E0,0E0,0E0,0E0,0E0,0E0,0E0,0E0,0E0,0E0,0E0,0E0,0E0,0E0,0E0,0E0,0E0,0E0],"parents":[2147483647,0,0,1,1,2,2,3,3,4,4,5,5,6,6,7,7,8,8,9,9,10,10,11,11,12,12,13,13,14,14,15,15,16,16,17,17,18,18,19,19,20,20,21,21,22,22,23,23,24,24,25,25,26,26,27,27,28,28,29,29,30,30],"right_children":[2,4,6,8,10,12,14,16,18,20,22,24,26,28,30,32,34,36,38,40,42,44,46,48,50,52,54,56,58,60,62,-1,-1,-1,-1,-1,-1,-1,-1,-1,-1,-1,-1,-1,-1,-1,-1,-1,-1,-1,-1,-1,-1,-1,-1,-1,-1,-1,-1,-1,-1,-1,-1],"split_conditions":[7.92648E-3,5.6860894E-3,3.892E3,5.175863E1,7.2673496E3,3.995287E1,1.3386614E-2,-5.8E1,-5.5557907E-1,3.7299194E1,7.069376E1,1.2859276E-2,-3E0,1.3265E-4,6.26E1,1.7438921E1,2.709E3,7.86E2,-2.2781E-4,-1.8086174E0,-6.2419116E-1,8.153445E3,5.795E-5,4.371E-5,3.2113E-4,2.0165289E-2,5.994714E1,9.871624E-3,4.188E3,-2.9043846E-2,7.770793E-2,-2.1737004E-2,5.1147457E-2,-2.7793093E-2,2.65825E-2,-2.2152651E-2,5.834189E-3,4.148143E-2,-5.797025E-3,4.2760237E-3,-2.1518152E-2,-1.0427475E-2,-7.1395765E-4,-2.815489E-2,-5.194965E-2,4.053829E-2,-2.6826615E-2,7.4208254E-4,-1.4907333E-2,1.2599758E-3,3.0330336E-2,8.864366E-3,2.332759E-2,2.039317E-3,9.628294E-3,6.5103746E-3,-2.90866E-2,-5.7591405E-2,-1.6284069E-2,1.0620239E-2,-1.6938856E-2,1.0716729E-3,5.2588828E-2],"split_indices":[7,7,13,6,14,6,7,13,9,6,6,7,13,1,4,14,13,13,1,12,9,14,1,1,1,7,6,7,13,10,9,0,0,0,0,0,0,0,0,0,0,0,0,0,0,0,0,0,0,0,0,0,0,0,0,0,0,0,0,0,0,0,0],"split_type":[0,0,0,0,0,0,0,0,0,0,0,0,0,0,0,0,0,0,0,0,0,0,0,0,0,0,0,0,0,0,0,0,0,0,0,0,0,0,0,0,0,0,0,0,0,0,0,0,0,0,0,0,0,0,0,0,0,0,0,0,0,0,0],"sum_hessian":[6.399581E3,1.440465E3,4.959116E3,5.348195E2,9.056454E2,4.854013E3,1.0510302E2,2.8459906E2,2.5022046E2,8.705252E2,3.5120193E1,1.1838038E3,3.6702092E3,4.9500534E1,5.560248E1,5.7760563E0,2.78823E2,7.214851E1,1.7807195E2,1.1088177E2,7.5964343E2,3.0505562E1,4.6146326E0,4.8673645E2,6.970674E2,6.357384E2,3.034471E3,2.3847311E1,2.5653225E1,4.8562183E1,7.040299E0,1.9438685E0,3.8321877E0,2.732426E2,5.5803976E0,6.3579124E1,8.56939E0,2.7380137E0,1.7533394E2,9.76243E0,1.0111934E2,2.1334E2,5.463034E2,2.0349728E1,1.0155835E1,2.194882E0,2.4197507E0,2.6847415E2,2.182623E2,6.738788E2,2.3188616E1,5.263182E2,1.0942023E2,2.2075054E3,8.269656E2,6.6597524E0,1.7187557E1,1.7940413E1,7.7128115E0,1.355606E1,3.5006123E1,2.2792485E0,4.7610507E0],"tree_param":{"num_deleted":"0","num_feature":"15","num_nodes":"63","size_leaf_vector":"1"}},{"base_weights":[5.6731293E-4,-2.371361E-1,5.1373344E-2,-5.860634E-1,-1.979216E-1,-2.4141116E-2,1.02455884E-1,-6.46134E-1,-2.3436269E-1,-3.2522014E-1,-1.2616497E-1,-3.6781186E-1,-6.8314E-3,1.2864964E-1,-4.9633812E-2,1.4330007E-2,-6.6374797E-1,2.0304218E-2,-3.3620074E-1,-2.7276278E-1,-5.1670706E-1,-1.1791692E-1,-1.1148905E0,-4.1116998E-1,3.9617878E-1,-2.3654293E-2,2.9709622E-1,-1.0785263E-2,1.5285566E-1,-2.2112144E-2,-6.2824893E-1,-5.2546966E-3,-3.485876E-2,-2.4130143E-2,5.4465556E-3,-1.801421E-2,-7.056236E-3,-1.6299631E-2,-3.212702E-2,-1.0477743E-2,-2.3328185E-3,-1.5684282E-2,-6.2253233E-2,-4.314555E-3,-2.3579415E-2,3.4378163E-4,4.1313417E-2,1.0125724E-3,-5.8953664E-3,-1.9793842E-2,1.9494971E-2,-3.095369E-3,1.1870797E-2,3.2744582E-3,1.0599775E-2,-1.3917714E-4,-3.793572E-2,-1.0670958E-2,-5.0467063E-2],"categories":[],"categories_nodes":[],"categories_segments":[],"categories_sizes":[],"default_left":[0,0,0,0,0,0,0,0,0,0,0,0,0,0,0,0,0,0,0,0,0,0,0,0,0,0,0,0,0,0,0,0,0,0,0,0,0,0,0,0,0,0,0,0,0,0,0,0,0,0,0,0,0,0,0,0,0,0,0],"id":13,"left_children":[1,3,5,7,9,11,13,15,17,19,21,23,25,27,29,-1,31,-1,33,35,37,39,41,43,45,47,49,51,53,55,57,-1,-1,-1,-1,-1,-1,-1,-1,-1,-1,-1,-1,-1,-1,-1,-1,-1,-1,-1,-1,-1,-1,-1,-1,-1,-1,-1,-1],"loss_changes":[7.711888E1,1.5270756E1,2.0297394E1,2.2380447E0,9.206879E0,1.2631224E1,1.25094185E1,1.7679672E0,1.3150055E0,3.5186958E0,5.161873E0,3.5356379E0,1.0350058E1,9.039104E0,7.340521E0,0E0,1.6924591E0,0E0,1.1041842E0,3.2684116E0,1.6438293E0,4.201106E0,1.571703E-1,1.860157E0,9.9513805E-1,7.9384694E0,6.982315E0,5.052242E0,1.1774895E1,6.2894135E0,3.093852E0,0E0,0E0,0E0,0E0,0E0,0E0,0E0,0E0,0E0,0E0,0E0,0E0,0E0,0E0,0E0,0E0,0E0,0E0,0E0,0E0,0E0,0E0,0E0,0E0,0E0,0E0,0E0,0E0],"parents":[2147483647,0,0,1,1,2,2,3,3,4,4,5,5,6,6,7,7,8,8,9,9,10,10,11,11,12,12,13,13,14,14,16,16,18,18,19,19,20,20,21,21,22,22,23,23,24,24,25,25,26,26,27,27,28,28,29,29,30,30],"right_children":[2,4,6,8,10,12,14,16,18,20,22,24,26,28,30,-1,32,-1,34,36,38,40,42,44,46,48,50,52,54,56,58,-1,-1,-1,-1,-1,-1,-1,-1,-1,-1,-1,-1,-1,-1,-1,-1,-1,-1,-1,-1,-1,-1,-1,-1,-1,-1,-1,-1],"split_conditions":[5.6524016E-3,2.4983368E-3,4.5440403E1,5.7738712E1,4.705256E1,3.6690005E-3,1.1662E-4,-5.8E1,2.2522465E-3,-2.9896984E-3,5.4217E-4,2.235E3,1.9824577E-2,7.407953E4,3.892E3,1.4330007E-2,-5.888823E-1,2.0304218E-2,6.480489E1,4.177846E1,7E0,1.9E1,1.752E3,-8.92038E-1,2.803362E-1,1.41E2,1.6716253E-2,7.995852E-3,1.8E-2,5.9753954E-2,2.058E-4,-5.2546966E-3,-3.485876E-2,-2.4130143E-2,5.4465556E-3,-1.801421E-2,-7.056236E-3,-1.6299631E-2,-3.212702E-2,-1.0477743E-2,-2.3328185E-3,-1.5684282E-2,-6.2253233E-2,-4.314555E-3,-2.3579415E-2,3.4378163E-4,4.1313417E-2,1.0125724E-3,-5.8953664E-3,-1.9793842E-2,1.9494971E-2,-3.095369E-3,1.1870797E-2,3.2744582E-3,1.0599775E-2,-1.3917714E-4,-3.793572E-2,-1.0670958E-2,-5.0467063E-2],"split_indices":[8,8,6,6,6,5,1,13,10,10,1,13,5,0,13,0,2,0,6,6,13,13,13,12,12,13,8,5,4,8,1,0,0,0,0,0,0,0,0,0,0,0,0,0,0,0,0,0,0,0,0,0,0,0,0,0,0,0,0],"split_type":[0,0,0,0,0,0,0,0,0,0,0,0,0,0,0,0,0,0,0,0,0,0,0,0,0,0,0,0,0,0,0,0,0,0,0,0,0,0,0,0,0,0,0,0,0,0,0,0,0,0,0,0,0,0,0,0,0,0,0],"sum_hessian":[6.3837134E3,1.1235155E3,5.260198E3,1.121014E2,1.01141406E3,2.1227297E3,3.1374683E3,9.503262E1,1.706878E1,3.6332745E2,6.480866E2,1.00818054E2,2.0219117E3,2.6766367E3,4.6083145E2,1.4783146E0,9.3554306E1,1.9318788E0,1.5136902E1,2.8710123E2,7.622622E1,6.4383496E2,4.2516747E0,9.5840706E1,4.9773517E0,1.9167393E3,1.05172485E2,3.9601437E2,2.2806226E3,4.4089844E2,1.9932999E1,5.515764E0,8.803854E1,1.1327238E1,3.8096642E0,1.7140398E2,1.1569726E2,3.1728624E1,4.4497597E1,2.8079904E2,3.630359E2,1.070797E0,3.180878E0,1.5409514E1,8.043119E1,3.1458325E0,1.8315194E0,1.3081506E3,6.085886E2,1.2035574E1,9.313692E1,3.2900055E2,6.7013824E1,9.2146375E2,1.3591587E3,4.3060312E2,1.029534E1,1.0290988E1,9.642011E0],"tree_param":{"num_deleted":"0","num_feature":"15","num_nodes":"59","size_leaf_vector":"1"}},{"base_weights":[3.054066E-3,-2.4672772E-1,4.7728647E-2,-6.1777574E-1,-2.1126725E-1,-1.1683411E-1,6.609764E-2,-6.4373666E-1,6.6655114E-2,-2.3466617E-1,1.7853756E-1,-1.8560904E-1,-4.9451903E-2,7.376046E-2,-2.8399545E-1,-2.5250602E-1,-6.8624914E-1,-1.8094251E-2,1.8948892E-2,-3.359589E-1,-1.5019238E-1,2.8900772E-1,-6.073295E-2,-1.5342212E-1,-4.4349536E-1,-1.3543147E-1,6.455201E-2,3.698195E-2,1.4044087E-1,5.368258E-1,-3.534783E-1,-2.1518877E-2,1.0488927E-2,-4.681301E-2,-3.1002104E-2,-2.0422107E-2,-1.0422691E-2,-1.2355567E-2,-3.0068415E-3,1.8136172E-2,-2.2906821E-2,-8.871078E-3,1.094307E-2,-4.39628E-2,-6.488729E-3,-4.6493425E-3,-3.5970725E-2,6.6701644E-3,-1.5937408E-2,8.684955E-3,3.2682007E-4,7.65706E-3,-1.0507026E-2,4.197077E-2,-1.1410094E-2,-1.174165E-2,-3.5503935E-2],"categories":[],"categories_nodes":[],"categories_segments":[],"categories_sizes":[],"default_left":[0,0,0,0,0,0,0,0,0,0,0,0,0,0,0,0,0,0,0,0,0,0,0,0,0,0,0,0,0,0,0,0,0,0,0,0,0,0,0,0,0,0,0,0,0,0,0,0,0,0,0,0,0,0,0,0,0],"id":14,"left_children":[1,3,5,7,9,11,13,15,17,19,21,23,25,27,29,31,33,-1,-1,35,37,39,-1,41,43,45,47,49,51,53,55,-1,-1,-1,-1,-1,-1,-1,-1,-1,-1,-1,-1,-1,-1,-1,-1,-1,-1,-1,-1,-1,-1,-1,-1,-1,-1],"loss_changes":[7.146302E1,1.2653736E1,1.64292E1,1.5396729E0,8.144928E0,2.5204377E0,1.3132889E1,1.1781311E0,6.7045397E-1,7.1243706E0,8.18117E0,2.1712313E0,2.7247171E0,1.1726366E1,6.172184E0,8.752241E-1,6.229553E-1,0E0,0E0,3.431343E0,3.9915524E0,2.8068595E0,0E0,2.1953578E0,3.9058452E0,3.8563519E0,3.204252E0,1.2837877E1,7.6022873E0,2.1785192E0,3.950366E0,0E0,0E0,0E0,0E0,0E0,0E0,0E0,0E0,0E0,0E0,0E0,0E0,0E0,0E0,0E0,0E0,0E0,0E0,0E0,0E0,0E0,0E0,0E0,0E0,0E0,0E0],"parents":[2147483647,0,0,1,1,2,2,3,3,4,4,5,5,6,6,7,7,8,8,9,9,10,10,11,11,12,12,13,13,14,14,15,15,16,16,19,19,20,20,21,21,23,23,24,24,25,25,26,26,27,27,28,28,29,29,30,30],"right_children":[2,4,6,8,10,12,14,16,18,20,22,24,26,28,30,32,34,-1,-1,36,38,40,-1,42,44,46,48,50,52,54,56,-1,-1,-1,-1,-1,-1,-1,-1,-1,-1,-1,-1,-1,-1,-1,-1,-1,-1,-1,-1,-1,-1,-1,-1,-1,-1],"split_conditions":[6.867895E-3,2.3328064E-3,5.823592E-3,1.7891389E0,2.235E3,2.8014334E-4,3.892E3,-9.01E-6,1.0255378E-3,-4.3644613E-4,4.9765E-4,1.617E3,8.850814E-3,6.8704113E-3,-4.1577127E-2,-2.37E-5,2.720926E-3,-1.8094251E-2,1.8948892E-2,6.043217E-3,2.534105E4,4.701232E-3,-6.073295E-2,7.54E2,2.323E3,6.9238693E-3,9.052354E-3,-5E0,2.1347146E0,9.147014E-2,2.058E-4,-2.1518877E-2,1.0488927E-2,-4.681301E-2,-3.1002104E-2,-2.0422107E-2,-1.0422691E-2,-1.2355567E-2,-3.0068415E-3,1.8136172E-2,-2.2906821E-2,-8.871078E-3,1.094307E-2,-4.39628E-2,-6.488729E-3,-4.6493425E-3,-3.5970725E-2,6.6701644E-3,-1.5937408E-2,8.684955E-3,3.2682007E-4,7.65706E-3,-1.0507026E-2,4.197077E-2,-1.1410094E-2,-1.174165E-2,-3.5503935E-2],"split_indices":[7,8,8,12,13,10,13,1,10,10,1,13,7,10,10,1,7,0,0,7,0,5,0,13,13,5,5,13,12,8,1,0,0,0,0,0,0,0,0,0,0,0,0,0,0,0,0,0,0,0,0,0,0,0,0,0,0],"split_type":[0,0,0,0,0,0,0,0,0,0,0,0,0,0,0,0,0,0,0,0,0,0,0,0,0,0,0,0,0,0,0,0,0,0,0,0,0,0,0,0,0,0,0,0,0,0,0,0,0,0,0,0,0,0,0,0,0],"sum_hessian":[6.4020737E3,9.70629E2,5.431445E3,8.3237274E1,8.873918E2,5.448573E2,4.8865874E3,8.025269E1,2.984581E0,8.375159E2,4.9875813E1,2.687737E2,2.7608356E2,4.7826934E3,1.0389411E2,8.545985E0,7.170671E1,1.1913004E0,1.7932806E0,3.7949066E2,4.580253E2,4.6945908E1,2.9299047E0,2.4036818E2,2.840555E1,1.572789E2,1.1880467E2,3.0835002E3,1.6991931E3,7.5833855E0,9.631073E1,6.22127E0,2.3247151E0,1.2261909E1,5.94448E1,2.4054433E2,1.3894633E2,2.1976614E2,2.3825917E2,4.3198334E1,3.7475717E0,2.2630287E2,1.4065299E1,1.1135535E1,1.7270016E1,1.477029E2,9.576001E0,1.012664E2,1.7538273E1,5.607448E2,2.5227554E3,1.6403329E3,5.8860325E1,5.364387E0,2.2189987E0,7.3511185E1,2.2799541E1],"tree_param":{"num_deleted":"0","num_feature":"15","num_nodes":"57","size_leaf_vector":"1"}},{"base_weights":[-1.5874207E-3,-2.3599568E-1,3.675189E-2,-6.0018843E-1,-2.012408E-1,-2.1594757E-2,8.905833E-2,-6.179906E-1,1.4515193E-2,-2.2701034E-1,2.1745762E-1,-5.988703E-2,1.303786E-1,-4.136567E-2,1.2192621E-1,-1.2230166E-1,-6.506274E-1,-3.287281E-1,-1.2634617E-1,-4.6257785E-1,3.521833E-1,3.3849813E-3,-1.4887878E-1,2.184792E-1,-5.6207883E-3,-6.317288E-1,-2.3695948E-2,1.2924796E-1,-4.638225E-1,1.9154703E-3,-2.1762593E-2,-3.7333634E-2,-2.386166E-2,-1.5056053E-2,-4.194055E-2,-8.12571E-3,5.8694105E-3,-3.4398142E-2,1.4012148E-2,-2.6307458E-2,2.0055827E-2,8.112934E-3,-8.629169E-4,-1.2601393E-2,-3.6430217E-3,5.135429E-3,1.8653704E-2,-1.9235688E-3,3.7957072E-2,-3.8931288E-2,9.613943E-3,1.7025732E-2,-2.5886714E-3,4.7182115E-3,1.1369913E-2,-7.2095073E-3,-3.8081348E-2],"categories":[],"categories_nodes":[],"categories_segments":[],"categories_sizes":[],"default_left":[0,0,0,0,0,0,0,0,0,0,0,0,0,0,0,0,0,0,0,0,0,0,0,0,0,0,0,0,0,0,0,0,0,0,0,0,0,0,0,0,0,0,0,0,0,0,0,0,0,0,0,0,0,0,0,0,0],"id":15,"left_children":[1,3,5,7,9,11,13,15,-1,17,19,21,23,25,27,29,31,33,35,37,39,41,43,45,47,49,51,53,55,-1,-1,-1,-1,-1,-1,-1,-1,-1,-1,-1,-1,-1,-1,-1,-1,-1,-1,-1,-1,-1,-1,-1,-1,-1,-1,-1,-1],"loss_changes":[5.739605E1,1.1242275E1,1.675331E1,1.4112072E0,8.90802E0,1.5111553E1,1.2412718E1,1.1580124E0,0E0,7.8828735E0,4.570927E0,1.167715E1,6.2635326E0,6.0702114E0,9.97575E0,3.161012E-1,8.351097E-1,5.1593704E0,3.4623513E0,1.5971221E0,1.9613857E0,3.981046E0,6.7388344E0,5.638975E0,5.2157817E0,2.1969676E0,5.82024E0,7.7996826E0,2.6279411E0,0E0,0E0,0E0,0E0,0E0,0E0,0E0,0E0,0E0,0E0,0E0,0E0,0E0,0E0,0E0,0E0,0E0,0E0,0E0,0E0,0E0,0E0,0E0,0E0,0E0,0E0,0E0,0E0],"parents":[2147483647,0,0,1,1,2,2,3,3,4,4,5,5,6,6,7,7,9,9,10,10,11,11,12,12,13,13,14,14,15,15,16,16,17,17,18,18,19,19,20,20,21,21,22,22,23,23,24,24,25,25,26,26,27,27,28,28],"right_children":[2,4,6,8,10,12,14,16,-1,18,20,22,24,26,28,30,32,34,36,38,40,42,44,46,48,50,52,54,56,-1,-1,-1,-1,-1,-1,-1,-1,-1,-1,-1,-1,-1,-1,-1,-1,-1,-1,-1,-1,-1,-1,-1,-1,-1,-1,-1,-1],"split_conditions":[3.9286194E-3,2.3328064E-3,4.8054188E1,6.750527E1,2.235E3,1.232611E-2,1.1045723E5,-5.792445E-1,1.4515193E-2,4.9954082E1,2.6167114E-3,4.8E1,1.0496364E-1,-2.2781E-4,6.6742E-4,4.855E1,5.2257378E1,1.163E3,6.713121E1,3.989916E7,-2.4003112E0,-2.3E1,6.7098797E-3,1.6705438E-2,5.5E1,6.424573E1,-9E0,6.32012E1,3.215E3,1.9154703E-3,-2.1762593E-2,-3.7333634E-2,-2.386166E-2,-1.5056053E-2,-4.194055E-2,-8.12571E-3,5.8694105E-3,-3.4398142E-2,1.4012148E-2,-2.6307458E-2,2.0055827E-2,8.112934E-3,-8.629169E-4,-1.2601393E-2,-3.6430217E-3,5.135429E-3,1.8653704E-2,-1.9235688E-3,3.7957072E-2,-3.8931288E-2,9.613943E-3,1.7025732E-2,-2.5886714E-3,4.7182115E-3,1.1369913E-2,-7.2095073E-3,-3.8081348E-2],"split_indices":[5,8,6,6,13,5,0,2,0,6,5,13,2,1,1,4,6,13,6,0,12,13,5,5,4,6,13,6,13,0,0,0,0,0,0,0,0,0,0,0,0,0,0,0,0,0,0,0,0,0,0,0,0,0,0,0,0],"split_type":[0,0,0,0,0,0,0,0,0,0,0,0,0,0,0,0,0,0,0,0,0,0,0,0,0,0,0,0,0,0,0,0,0,0,0,0,0,0,0,0,0,0,0,0,0,0,0,0,0,0,0,0,0,0,0,0,0],"sum_hessian":[6.384563E3,8.967342E2,5.4878286E3,7.670297E1,8.200312E2,2.5944104E3,2.8934182E3,7.549964E1,1.2033302E0,7.7291833E2,4.7112846E1,2.0727512E3,5.21659E2,5.823439E2,2.3110745E3,4.957173E0,7.054247E1,3.8332037E2,3.89598E2,7.3880043E0,3.9724842E1,1.211998E3,8.607533E2,3.1621075E2,2.0544826E2,1.5913274E1,5.664306E2,2.2833127E3,2.7761623E1,3.8558664E0,1.1013066E0,4.3268982E1,2.7273489E1,3.6514792E2,1.8172451E1,3.3954565E2,5.0052334E1,5.724838E0,1.6631663E0,1.5816911E0,3.814315E1,1.385832E2,1.0734148E3,3.642238E2,4.965295E2,1.8176083E2,1.344499E2,1.9789722E2,7.551038E0,1.3552354E1,2.3609207E0,3.9745045E1,5.2668555E2,1.6860375E3,5.972754E2,1.4105945E1,1.3655679E1],"tree_param":{"num_deleted":"0","num_feature":"15","num_nodes":"57","size_leaf_vector":"1"}},{"base_weights":[-2.2021362E-3,-1.664701E-1,5.082946E-2,-2.76028E-1,-7.755353E-2,5.9614897E-2,-3.3919236E-1,-6.192384E-1,-2.2571976E-1,-1.969137E-1,2.7680252E-2,-3.373762E-2,8.3812565E-2,-5.1660377E-1,-1.8922439E-2,-4.2528313E-1,-8.466158E-1,-1.9896282E-1,-5.213866E-1,-1.5114784E-1,-4.6642748E-1,4.1667823E-2,-9.4420344E-1,-4.9809854E-2,4.4140196E-1,8.93469E-2,-4.0366924E-1,4.536084E-1,-5.74647E-1,-3.413637E-1,3.5973555E-1,-2.7452305E-2,-1.1347266E-3,-4.3978512E-2,6.9262483E-3,-1.9047968E-2,-7.929447E-3,-2.8023148E-2,1.9285686E-2,-1.0601403E-2,5.605579E-3,-1.6491031E-2,-5.1366933E-2,1.4269397E-3,3.8439132E-2,1.3863611E-2,-6.6548154E-2,8.951414E-3,-4.3927524E-3,3.9897915E-2,9.5485095E-3,9.785524E-3,3.4710225E-3,-3.394159E-2,2.3825355E-3,3.2176524E-2,-3.7301236E-3,-3.6731977E-2,-1.1510802E-2,8.105746E-3,-3.3475623E-2,3.193289E-2,-6.140857E-3],"categories":[],"categories_nodes":[],"categories_segments":[],"categories_sizes":[],"default_left":[0,0,0,0,0,0,0,0,0,0,0,0,0,0,0,0,0,0,0,0,0,0,0,0,0,0,0,0,0,0,0,0,0,0,0,0,0,0,0,0,0,0,0,0,0,0,0,0,0,0,0,0,0,0,0,0,0,0,0,0,0,0,0],"id":16,"left_children":[1,3,5,7,9,11,13,15,17,19,21,23,25,27,29,31,33,35,37,39,41,43,45,47,49,51,53,55,57,59,61,-1,-1,-1,-1,-1,-1,-1,-1,-1,-1,-1,-1,-1,-1,-1,-1,-1,-1,-1,-1,-1,-1,-1,-1,-1,-1,-1,-1,-1,-1,-1,-1],"loss_changes":[5.550311E1,1.5125748E1,1.652383E1,1.1881176E1,1.0803904E1,1.0645002E1,6.0274315E0,3.5398521E0,4.7123833E0,4.899539E0,6.2623096E0,7.433344E0,1.0130703E1,4.109062E0,4.8740535E0,2.4654818E0,1.410656E0,4.053482E0,1.9850626E0,5.5680275E0,4.1061935E0,4.295152E0,3.457243E0,8.196541E0,2.69214E0,7.8294296E0,5.2709417E0,4.9105895E-1,3.4084625E0,3.6657102E0,2.5528197E0,0E0,0E0,0E0,0E0,0E0,0E0,0E0,0E0,0E0,0E0,0E0,0E0,0E0,0E0,0E0,0E0,0E0,0E0,0E0,0E0,0E0,0E0,0E0,0E0,0E0,0E0,0E0,0E0,0E0,0E0,0E0,0E0],"parents":[2147483647,0,0,1,1,2,2,3,3,4,4,5,5,6,6,7,7,8,8,9,9,10,10,11,11,12,12,13,13,14,14,15,15,16,16,17,17,18,18,19,19,20,20,21,21,22,22,23,23,24,24,25,25,26,26,27,27,28,28,29,29,30,30],"right_children":[2,4,6,8,10,12,14,16,18,20,22,24,26,28,30,32,34,36,38,40,42,44,46,48,50,52,54,56,58,60,62,-1,-1,-1,-1,-1,-1,-1,-1,-1,-1,-1,-1,-1,-1,-1,-1,-1,-1,-1,-1,-1,-1,-1,-1,-1,-1,-1,-1,-1,-1,-1,-1],"split_conditions":[8.178832E-3,4.924784E1,3.892E3,4.3669357E-3,3.562342E4,3.823455E1,1.159E1,3.4E1,6.09407E3,7.528513E3,4.3391E-4,2.7016E-4,6.6742E-4,-9.902283E-1,1.3664967E-2,9E0,2.058E-4,3.446774E1,2.1902E-4,2.006E2,3.92E2,3.282E3,1.05E2,-1.2E1,1.679E3,-5E0,4.3180375E0,1.3265E-4,1.9947365E-1,6.197305E-3,1.3265E-4,-2.7452305E-2,-1.1347266E-3,-4.3978512E-2,6.9262483E-3,-1.9047968E-2,-7.929447E-3,-2.8023148E-2,1.9285686E-2,-1.0601403E-2,5.605579E-3,-1.6491031E-2,-5.1366933E-2,1.4269397E-3,3.8439132E-2,1.3863611E-2,-6.6548154E-2,8.951414E-3,-4.3927524E-3,3.9897915E-2,9.5485095E-3,9.785524E-3,3.4710225E-3,-3.394159E-2,2.3825355E-3,3.2176524E-2,-3.7301236E-3,-3.6731977E-2,-1.1510802E-2,8.105746E-3,-3.3475623E-2,3.193289E-2,-6.140857E-3],"split_indices":[7,6,13,7,0,6,4,13,14,14,1,1,1,9,7,13,1,6,1,4,13,13,13,13,13,13,14,1,9,5,1,0,0,0,0,0,0,0,0,0,0,0,0,0,0,0,0,0,0,0,0,0,0,0,0,0,0,0,0,0,0,0,0],"split_type":[0,0,0,0,0,0,0,0,0,0,0,0,0,0,0,0,0,0,0,0,0,0,0,0,0,0,0,0,0,0,0,0,0,0,0,0,0,0,0,0,0,0,0,0,0,0,0,0,0,0,0,0,0,0,0,0,0,0,0,0,0,0,0],"sum_hessian":[6.3693535E3,1.5539081E3,4.8154453E3,6.9520807E2,8.587001E2,4.710193E3,1.05252304E2,8.743111E1,6.07777E2,4.019368E2,4.5676328E2,9.6951056E2,3.7406826E3,6.73379E1,3.7914402E1,4.8732327E1,3.869878E1,5.5887354E2,4.890342E1,3.4492606E2,5.7010727E1,4.5122623E2,5.5370235E0,9.386545E2,3.0856083E1,3.6994993E3,4.1183342E1,3.4164147E0,6.3921486E1,2.0530453E1,1.738395E1,3.6995464E1,1.1736861E1,3.7549843E1,1.1489366E0,9.993824E1,4.589353E2,4.7250103E1,1.6533157E0,2.8029977E2,6.462629E1,4.7122345E1,9.888384E0,4.4424408E2,6.9821706E0,1.3996611E0,4.1373625E0,1.3328036E2,8.053741E2,1.1828596E1,1.9027487E1,5.8232715E2,3.117172E3,2.527157E1,1.5911773E1,2.352305E0,1.0641098E0,4.2873363E1,2.1048122E1,8.300685E0,1.2229769E1,1.0811342E1,6.572607E0],"tree_param":{"num_deleted":"0","num_feature":"15","num_nodes":"63","size_leaf_vector":"1"}},{"base_weights":[3.2849084E-3,-2.2061183E-1,4.1878413E-2,-3.1567922E-1,-1.0126967E-1,2.0029383E-2,1.7497715E-1,-4.9580726E-1,-2.2373515E-1,-2.631859E-1,-1.9213095E-2,-7.7516283E-3,1.6539837E-1,2.2496746E-1,-3.312643E-2,-9.565833E-1,-4.5593667E-1,-2.792982E-1,4.3128293E-5,-3.102004E-1,2.0672424E-1,-4.1611027E-3,-6.483801E-1,-1.0350121E-1,1.2252538E-2,-3.0477483E-2,2.2263971E-1,-1.4964242E-1,2.6139516E-1,7.898539E-2,-2.7151117E-1,-5.5882584E-2,-1.8108977E-2,-2.0301688E-2,-4.0384945E-2,-3.9296467E-2,-1.2597813E-2,4.326841E-3,-2.228391E-2,-2.7418048E-3,-1.7616805E-2,1.768425E-2,-2.233226E-2,-5.0395397E-3,4.6074223E-3,-4.4623185E-2,1.2955839E-2,-1.0054979E-2,8.663162E-4,-4.450409E-3,1.742108E-3,-4.6281884E-3,1.9758988E-2,1.3121187E-2,4.1559213E-3,7.3250458E-3,-3.0694563E-2,-1.8530678E-3,1.5081676E-2,6.486719E-3,-3.449117E-2,-3.204072E-2,-2.5677315E-3],"categories":[],"categories_nodes":[],"categories_segments":[],"categories_sizes":[],"default_left":[0,0,0,0,0,0,0,0,0,0,0,0,0,0,0,0,0,0,0,0,0,0,0,0,0,0,0,0,0,0,0,0,0,0,0,0,0,0,0,0,0,0,0,0,0,0,0,0,0,0,0,0,0,0,0,0,0,0,0,0,0,0,0],"id":17,"left_children":[1,3,5,7,9,11,13,15,17,19,21,23,25,27,29,31,33,35,37,39,41,43,45,47,49,51,53,55,57,59,61,-1,-1,-1,-1,-1,-1,-1,-1,-1,-1,-1,-1,-1,-1,-1,-1,-1,-1,-1,-1,-1,-1,-1,-1,-1,-1,-1,-1,-1,-1,-1,-1],"loss_changes":[5.5127007E1,1.0610199E1,1.5821267E1,8.528122E0,5.5403123E0,1.8883137E1,7.9886913E0,2.7872505E0,4.3166733E0,3.1636992E0,2.6307435E0,7.521601E0,8.418163E0,8.482332E0,4.016135E0,8.4579563E-1,2.5402641E0,3.6545334E0,2.739326E0,1.357295E0,1.4408283E0,2.5460663E0,1.6689775E0,8.006276E0,7.434168E0,4.5433555E0,3.201292E0,7.716127E0,6.787533E0,4.086091E0,3.8726008E0,0E0,0E0,0E0,0E0,0E0,0E0,0E0,0E0,0E0,0E0,0E0,0E0,0E0,0E0,0E0,0E0,0E0,0E0,0E0,0E0,0E0,0E0,0E0,0E0,0E0,0E0,0E0,0E0,0E0,0E0,0E0,0E0],"parents":[2147483647,0,0,1,1,2,2,3,3,4,4,5,5,6,6,7,7,8,8,9,9,10,10,11,11,12,12,13,13,14,14,15,15,16,16,17,17,18,18,19,19,20,20,21,21,22,22,23,23,24,24,25,25,26,26,27,27,28,28,29,29,30,30],"right_children":[2,4,6,8,10,12,14,16,18,20,22,24,26,28,30,32,34,36,38,40,42,44,46,48,50,52,54,56,58,60,62,-1,-1,-1,-1,-1,-1,-1,-1,-1,-1,-1,-1,-1,-1,-1,-1,-1,-1,-1,-1,-1,-1,-1,-1,-1,-1,-1,-1,-1,-1,-1,-1],"split_conditions":[6.8080816E-3,5.2257378E1,2.106579E-2,4.9176994E-3,-4.797309E-1,6.2014114E1,5.7432693E1,2.720926E-3,1.1023681E7,6.510569E1,5.4018614E-3,3.6054497E1,1.8942195E5,-4.8778382E-1,2.1187613E-2,4.719E1,7.207274E-4,2.8471678E1,4.761E-5,8.7494106E-4,4.454527E-3,3.1483432E-3,1.8368788E-2,1.305688E-2,6.326627E-3,1.5836549E0,1.512853E-2,-6.3295625E-2,2.7990019E1,2.4809E-4,2.6346741E-2,-5.5882584E-2,-1.8108977E-2,-2.0301688E-2,-4.0384945E-2,-3.9296467E-2,-1.2597813E-2,4.326841E-3,-2.228391E-2,-2.7418048E-3,-1.7616805E-2,1.768425E-2,-2.233226E-2,-5.0395397E-3,4.6074223E-3,-4.4623185E-2,1.2955839E-2,-1.0054979E-2,8.663162E-4,-4.450409E-3,1.742108E-3,-4.6281884E-3,1.9758988E-2,1.3121187E-2,4.1559213E-3,7.3250458E-3,-3.0694563E-2,-1.8530678E-3,1.5081676E-2,6.486719E-3,-3.449117E-2,-3.204072E-2,-2.5677315E-3],"split_indices":[7,6,7,7,9,6,6,7,0,6,5,6,0,2,5,3,10,6,11,10,5,5,10,7,8,9,7,9,6,11,8,0,0,0,0,0,0,0,0,0,0,0,0,0,0,0,0,0,0,0,0,0,0,0,0,0,0,0,0,0,0,0,0],"split_type":[0,0,0,0,0,0,0,0,0,0,0,0,0,0,0,0,0,0,0,0,0,0,0,0,0,0,0,0,0,0,0,0,0,0,0,0,0,0,0,0,0,0,0,0,0,0,0,0,0,0,0,0,0,0,0,0,0,0,0,0,0,0,0],"sum_hessian":[6.3776626E3,9.370037E2,5.4406587E3,5.206284E2,4.163753E2,4.6744653E3,7.661936E2,1.7445679E2,3.4617163E2,1.3929916E2,2.7707614E2,3.9252664E3,7.4919867E2,6.1772394E2,1.484697E2,1.2062369E1,1.6239442E2,2.7711682E2,6.905481E1,1.26938805E2,1.2360358E1,2.7158545E2,5.4907103E0,6.776298E2,3.2476367E3,1.6953374E2,5.796649E2,5.446958E1,5.6325433E2,1.0143412E2,4.7035576E1,8.798034E0,3.2643354E0,1.4410516E2,1.8289265E1,1.2769038E1,2.6434778E2,5.8507156E1,1.0547656E1,1.8304623E1,1.0863418E2,1.04651375E1,1.8952211E0,1.3554417E2,1.3604128E2,4.3399796E0,1.1507308E0,3.7447968E2,3.0315012E2,5.918148E2,2.6558218E3,1.4863622E2,2.089751E1,4.5036426E2,1.2930067E2,3.367366E1,2.0795921E1,6.692632E1,4.9632803E2,9.593285E1,5.501265E0,1.6853622E1,3.0181955E1],"tree_param":{"num_deleted":"0","num_feature":"15","num_nodes":"63","size_leaf_vector":"1"}},{"base_weights":[-1.1726075E-3,-1.996148E-1,3.1179471E-2,-2.2366136E-1,2.1201551E-1,-9.1071863E-4,1.12479664E-1,-2.989093E-1,-1.0684737E-1,-4.7109115E-1,3.6238E-1,1.1785503E-1,-3.0031463E-2,-2.0670404E-1,1.3583833E-1,-2.7159902E-1,-8.211165E-1,-1.4124297E-1,2.847575E-1,-7.04125E-1,1.7506115E-2,4.4522008E-1,-2.8633675E-1,-2.5213006E-1,1.568648E-1,-2.2008806E-2,-3.0557483E-1,-1.513067E-1,-1.1176928E0,1.6178398E-1,-6.6764474E-2,-3.14452E-2,-1.1970236E-2,-4.5186576E-2,2.1016564E-2,-9.43369E-3,5.2831527E-3,2.3796597E-2,-3.699403E-2,-5.407528E-2,-6.2084077E-3,2.447581E-2,-2.8797392E-2,4.0500764E-2,-3.8469877E-2,-2.0886987E-2,1.539131E-2,2.1808757E-2,4.581298E-3,-2.11272E-3,3.8750418E-3,-6.5531223E-3,-3.5982396E-2,4.351138E-2,-9.635428E-3,-1.1200891E-2,-6.273122E-2,8.453877E-3,-1.5914585E-2,-1.3383373E-4,-2.3641592E-2],"categories":[],"categories_nodes":[],"categories_segments":[],"categories_sizes":[],"default_left":[0,0,0,0,0,0,0,0,0,0,0,0,0,0,0,0,0,0,0,0,0,0,0,0,0,0,0,0,0,0,0,0,0,0,0,0,0,0,0,0,0,0,0,0,0,0,0,0,0,0,0,0,0,0,0,0,0,0,0,0,0],"id":18,"left_children":[1,3,5,7,9,11,13,15,17,19,21,23,25,27,29,31,33,35,37,39,-1,41,43,45,47,49,51,53,55,57,59,-1,-1,-1,-1,-1,-1,-1,-1,-1,-1,-1,-1,-1,-1,-1,-1,-1,-1,-1,-1,-1,-1,-1,-1,-1,-1,-1,-1,-1,-1],"loss_changes":[4.0993423E1,8.907043E0,1.432374E1,7.405731E0,5.297757E0,1.3621371E1,1.1612556E1,7.108616E0,4.526493E0,2.053043E0,2.356359E0,1.1232888E1,6.9851646E0,5.1980605E0,7.624668E0,5.486294E0,2.9495506E0,3.6133924E0,5.684862E0,1.5477645E0,0E0,1.9632807E0,3.432875E0,7.0237365E0,1.2755114E1,6.197258E0,6.3663397E0,4.4567432E0,4.4582748E-1,4.5506783E0,4.29628E0,0E0,0E0,0E0,0E0,0E0,0E0,0E0,0E0,0E0,0E0,0E0,0E0,0E0,0E0,0E0,0E0,0E0,0E0,0E0,0E0,0E0,0E0,0E0,0E0,0E0,0E0,0E0,0E0,0E0,0E0],"parents":[2147483647,0,0,1,1,2,2,3,3,4,4,5,5,6,6,7,7,8,8,9,9,10,10,11,11,12,12,13,13,14,14,15,15,16,16,17,17,18,18,19,19,21,21,22,22,23,23,24,24,25,25,26,26,27,27,28,28,29,29,30,30],"right_children":[2,4,6,8,10,12,14,16,18,20,22,24,26,28,30,32,34,36,38,40,-1,42,44,46,48,50,52,54,56,58,60,-1,-1,-1,-1,-1,-1,-1,-1,-1,-1,-1,-1,-1,-1,-1,-1,-1,-1,-1,-1,-1,-1,-1,-1,-1,-1,-1,-1,-1,-1],"split_conditions":[3.9286194E-3,2.235E3,1.0803341E-2,5.302949E1,2.6167114E-3,-3E0,2.785495E4,1.163E3,7.86E2,3.989916E7,9.392333E-1,-2.2781E-4,3.892E3,8.574841E3,1.0752E-4,1.8180393E-3,3.607E2,6.713121E1,1.829E3,1.8571078E2,1.7506115E-2,1.2574E-4,4.23799E-2,1.4403158E6,-3.2E1,1.2007362E-2,1.8481E-4,5.1153088E1,4.622E-5,2.1347146E0,2.1172598E1,-3.14452E-2,-1.1970236E-2,-4.5186576E-2,2.1016564E-2,-9.43369E-3,5.2831527E-3,2.3796597E-2,-3.699403E-2,-5.407528E-2,-6.2084077E-3,2.447581E-2,-2.8797392E-2,4.0500764E-2,-3.8469877E-2,-2.0886987E-2,1.539131E-2,2.1808757E-2,4.581298E-3,-2.11272E-3,3.8750418E-3,-6.5531223E-3,-3.5982396E-2,4.351138E-2,-9.635428E-3,-1.1200891E-2,-6.273122E-2,8.453877E-3,-1.5914585E-2,-1.3383373E-4,-2.3641592E-2],"split_indices":[5,13,10,6,5,13,0,13,13,0,12,1,13,14,11,5,3,6,13,14,0,11,14,0,13,5,1,6,1,12,14,0,0,0,0,0,0,0,0,0,0,0,0,0,0,0,0,0,0,0,0,0,0,0,0,0,0,0,0,0,0],"split_type":[0,0,0,0,0,0,0,0,0,0,0,0,0,0,0,0,0,0,0,0,0,0,0,0,0,0,0,0,0,0,0,0,0,0,0,0,0,0,0,0,0,0,0,0,0,0,0,0,0,0,0,0,0,0,0,0,0,0,0,0,0],"sum_hessian":[6.383282E3,8.940655E2,5.489217E3,8.451502E2,4.8915245E1,3.936443E3,1.5527738E3,5.1308075E2,3.3206946E2,8.439871E0,4.0475372E1,7.745361E2,3.161907E3,1.0535157E2,1.4474222E3,4.8902588E2,2.4054876E1,3.0584564E2,2.6223833E1,6.6853614E0,1.7545096E0,3.617019E1,4.3051853E0,7.335387E1,7.011822E2,3.0734995E3,8.840742E1,1.0041162E2,4.939951E0,1.2832842E3,1.6413802E2,3.888874E1,4.5013715E2,2.280903E1,1.2458452E0,2.5675806E2,4.908758E1,2.2551704E1,3.6721287E0,3.5261047E0,3.1592567E0,3.516542E1,1.004769E0,1.1097238E0,3.1954615E0,5.680693E1,1.6546938E1,1.316891E2,5.694931E2,2.5543777E3,5.191218E2,6.3121277E1,2.5286142E1,3.1313272E0,9.728029E1,1.0065764E0,3.9333744E0,1.2647178E3,1.8566412E1,1.4263342E2,2.1504602E1],"tree_param":{"num_deleted":"0","num_feature":"15","num_nodes":"61","size_leaf_vector":"1"}},{"base_weights":[5.255305E-3,-1.7843562E-1,4.4295494E-2,-3.955108E-1,-1.4294186E-1,-4.7510214E-2,7.49713E-2,-4.624925E-1,-5.506676E-2,-2.8368238E-1,-1.0508119E-1,5.178482E-2,-1.5502195E-1,9.5602766E-2,-4.9635652E-2,-1.2399195E-1,-5.078389E-1,-4.474289E-1,5.0501175E-2,1.0112288E-1,-3.2031956E-1,-8.373997E-2,-3.8647792E-1,-4.9034417E-2,1.22894876E-1,-3.5449114E-1,-1.15132265E-1,5.279111E-2,1.9467746E-1,-3.5263214E-2,-9.0922E-1,6.7116255E-3,-2.3978552E-2,-2.9544696E-2,-1.6398747E-2,-2.7319774E-2,2.8181664E-4,1.7197868E-2,-9.569937E-3,-1.118381E-2,1.9811762E-2,-1.9813208E-2,-5.260911E-3,-3.3458564E-3,-2.3683852E-2,-2.296588E-2,9.94543E-3,-3.6772117E-3,3.899842E-2,4.6054944E-3,2.78495E-2,6.151725E-4,-2.351326E-2,-5.1158434E-3,-4.4667944E-2,3.0308808E-3,-2.6255218E-2,9.193343E-3,3.5025146E-2,-5.380902E-3,5.3953864E-3,-2.1528978E-2,-6.500884E-2],"categories":[],"categories_nodes":[],"categories_segments":[],"categories_sizes":[],"default_left":[0,0,0,0,0,0,0,0,0,0,0,0,0,0,0,0,0,0,0,0,0,0,0,0,0,0,0,0,0,0,0,0,0,0,0,0,0,0,0,0,0,0,0,0,0,0,0,0,0,0,0,0,0,0,0,0,0,0,0,0,0,0,0],"id":19,"left_children":[1,3,5,7,9,11,13,15,17,19,21,23,25,27,29,31,33,35,37,39,41,43,45,47,49,51,53,55,57,59,61,-1,-1,-1,-1,-1,-1,-1,-1,-1,-1,-1,-1,-1,-1,-1,-1,-1,-1,-1,-1,-1,-1,-1,-1,-1,-1,-1,-1,-1,-1,-1,-1],"loss_changes":[4.565803E1,8.541775E0,1.4790602E1,3.5378494E0,5.0893307E0,1.4053181E1,1.0123562E1,1.9392109E0,1.133708E0,2.8952503E0,4.5235224E0,4.9149275E0,4.9874096E0,1.431447E1,6.8836327E0,1.6007308E0,1.519722E0,2.6263404E-1,1.6301223E0,1.8535694E0,2.9910889E0,4.6024113E0,2.359898E0,5.8261147E0,5.318219E0,4.4575777E0,5.17558E0,1.070403E1,5.4414597E0,5.7258415E0,1.1552653E0,0E0,0E0,0E0,0E0,0E0,0E0,0E0,0E0,0E0,0E0,0E0,0E0,0E0,0E0,0E0,0E0,0E0,0E0,0E0,0E0,0E0,0E0,0E0,0E0,0E0,0E0,0E0,0E0,0E0,0E0,0E0,0E0],"parents":[2147483647,0,0,1,1,2,2,3,3,4,4,5,5,6,6,7,7,8,8,9,9,10,10,11,11,12,12,13,13,14,14,15,15,16,16,17,17,18,18,19,19,20,20,21,21,22,22,23,23,24,24,25,25,26,26,27,27,28,28,29,29,30,30],"right_children":[2,4,6,8,10,12,14,16,18,20,22,24,26,28,30,32,34,36,38,40,42,44,46,48,50,52,54,56,58,60,62,-1,-1,-1,-1,-1,-1,-1,-1,-1,-1,-1,-1,-1,-1,-1,-1,-1,-1,-1,-1,-1,-1,-1,-1,-1,-1,-1,-1,-1,-1,-1,-1],"split_conditions":[5.6524016E-3,2.7672956E-3,3.995287E1,5.7738712E1,4.2898872E1,-2.3804134E-2,1.1662E-4,-7.38E-6,-5.703545E-1,-1.9861644E-2,1.3883028E0,2.9419695E1,3.1317165E1,1.5461948E-2,7.029782E-2,-5.742417E-4,5.1891186E1,2.181121E4,3.2812765E-1,3.2583336E1,4.6546933E-1,7.528513E3,1.819E2,2.8564E-4,1.2056E-4,-9.01E-6,-2.8299433E-3,7.528513E3,4.125471E0,1.5047571E-2,2.7500823E0,6.7116255E-3,-2.3978552E-2,-2.9544696E-2,-1.6398747E-2,-2.7319774E-2,2.8181664E-4,1.7197868E-2,-9.569937E-3,-1.118381E-2,1.9811762E-2,-1.9813208E-2,-5.260911E-3,-3.3458564E-3,-2.3683852E-2,-2.296588E-2,9.94543E-3,-3.6772117E-3,3.899842E-2,4.6054944E-3,2.78495E-2,6.151725E-4,-2.351326E-2,-5.1158434E-3,-4.4667944E-2,3.0308808E-3,-2.6255218E-2,9.193343E-3,3.5025146E-2,-5.380902E-3,5.3953864E-3,-2.1528978E-2,-6.500884E-2],"split_indices":[8,8,6,6,6,10,1,1,12,10,12,6,6,8,8,10,6,0,12,6,12,14,4,1,11,1,10,14,9,10,9,0,0,0,0,0,0,0,0,0,0,0,0,0,0,0,0,0,0,0,0,0,0,0,0,0,0,0,0,0,0,0,0],"split_type":[0,0,0,0,0,0,0,0,0,0,0,0,0,0,0,0,0,0,0,0,0,0,0,0,0,0,0,0,0,0,0,0,0,0,0,0,0,0,0,0,0,0,0,0,0,0,0,0,0,0,0,0,0,0,0,0,0,0,0,0,0,0,0],"sum_hessian":[6.364645E3,1.1149657E3,5.2496797E3,1.552618E2,9.5970386E2,1.3146582E3,3.9350212E3,1.2943686E2,2.5824944E1,2.020659E2,7.5763794E2,6.837151E2,6.309431E2,3.376242E3,5.5877936E2,1.57324095E1,1.1370445E2,4.7886744E0,2.103627E1,1.7413147E1,1.8465276E2,7.054351E2,5.2202847E1,2.8291336E2,4.0080176E2,1.038337E2,5.2710944E2,2.358592E3,1.0176499E3,5.50614E2,8.165364E0,9.474468E0,6.2579412E0,7.622237E1,3.7482086E1,3.7611086E0,1.0275657E0,9.314574E0,1.1721695E1,8.404863E0,9.008283E0,1.3584758E2,4.880517E1,6.7738275E2,2.805235E1,4.6617577E1,5.5852695E0,2.7567422E2,7.2391376E0,3.7539203E2,2.5409716E1,2.5125372E1,7.870833E1,5.1968304E2,7.426373E0,2.3279592E3,3.0632708E1,9.9769055E2,1.9959343E1,3.6593066E2,1.8468336E2,4.615747E0,3.5496168E0],"tree_param":{"num_deleted":"0","num_feature":"15","num_nodes":"63","size_leaf_vector":"1"}},{"base_weights":[-3.1711806E-3,-2.0266633E-1,3.1270023E-2,-3.0894384E-1,-1.0579453E-1,-1.8202858E-2,7.631224E-2,-5.33601E-1,-2.4868141E-1,-8.2274966E-2,-4.2815825E-1,-4.8541747E-2,1.422294E-1,9.300583E-2,-8.532351E-2,-5.590298E-1,2.4633418E-1,-7.3425883E-1,-2.217135E-1,-2.8988728E-1,-4.3300036E-2,-1.1474091E-1,-7.282208E-1,9.4236685E-3,-8.46999E-2,-1.3416518E-1,2.1258095E-1,2.7072841E-2,1.3389206E-1,-4.318912E-2,-3.9677957E-1,1.9126713E-2,-2.8724154E-2,-1.821752E-2,3.1613853E-2,-3.2232234E-3,-4.030962E-2,-1.2264971E-3,-1.33241415E-2,-1.5519584E-2,2.0442089E-2,-6.743397E-3,2.9273971E-3,2.709958E-2,-1.6058935E-2,-5.590367E-2,-1.1800199E-2,-3.2784664E-3,6.4492375E-3,-1.4663662E-3,-8.750157E-3,3.2322776E-2,-1.22399675E-2,8.797036E-3,3.3618044E-2,1.7921998E-3,-2.330703E-2,1.4486738E-2,5.896037E-3,-3.233272E-2,-8.878711E-4,-2.741738E-2,1.6044257E-2],"categories":[],"categories_nodes":[],"categories_segments":[],"categories_sizes":[],"default_left":[0,0,0,0,0,0,0,0,0,0,0,0,0,0,0,0,0,0,0,0,0,0,0,0,0,0,0,0,0,0,0,0,0,0,0,0,0,0,0,0,0,0,0,0,0,0,0,0,0,0,0,0,0,0,0,0,0,0,0,0,0,0,0],"id":20,"left_children":[1,3,5,7,9,11,13,15,17,19,21,23,25,27,29,31,33,35,37,39,41,43,45,47,49,51,53,55,57,59,61,-1,-1,-1,-1,-1,-1,-1,-1,-1,-1,-1,-1,-1,-1,-1,-1,-1,-1,-1,-1,-1,-1,-1,-1,-1,-1,-1,-1,-1,-1,-1,-1],"loss_changes":[4.3779278E1,9.625076E0,1.2109766E1,5.91626E0,3.6971254E0,1.2614848E1,7.682991E0,1.9946289E0,4.475092E0,3.7099292E0,3.0421243E0,4.568057E0,8.043665E0,6.947727E0,3.4839644E0,1.5435162E0,1.0907297E0,8.2503414E-1,2.9681568E0,1.1661372E0,3.631064E0,2.5389433E0,2.9585276E0,7.522359E0,6.70578E0,7.4338965E0,5.423435E0,4.291942E0,3.9268017E0,3.6123142E0,3.6207623E0,0E0,0E0,0E0,0E0,0E0,0E0,0E0,0E0,0E0,0E0,0E0,0E0,0E0,0E0,0E0,0E0,0E0,0E0,0E0,0E0,0E0,0E0,0E0,0E0,0E0,0E0,0E0,0E0,0E0,0E0,0E0,0E0],"parents":[2147483647,0,0,1,1,2,2,3,3,4,4,5,5,6,6,7,7,8,8,9,9,10,10,11,11,12,12,13,13,14,14,15,15,16,16,17,17,18,18,19,19,20,20,21,21,22,22,23,23,24,24,25,25,26,26,27,27,28,28,29,29,30,30],"right_children":[2,4,6,8,10,12,14,16,18,20,22,24,26,28,30,32,34,36,38,40,42,44,46,48,50,52,54,56,58,60,62,-1,-1,-1,-1,-1,-1,-1,-1,-1,-1,-1,-1,-1,-1,-1,-1,-1,-1,-1,-1,-1,-1,-1,-1,-1,-1,-1,-1,-1,-1,-1,-1],"split_conditions":[6.8080816E-3,5.0196247E1,4.8054188E1,4.3669357E-3,1.0856E-4,2.1309275E-2,2.3264E-4,1.7891389E0,2.8471678E1,2.7672956E-3,1.89E0,2.006E-5,2.9419695E1,9.26706E-3,6.6742E-4,-4.0679E-4,2.0494626E-3,4.2E-3,-7.9E-7,7.069376E1,7.3089096E1,-2.075E-5,2.3264E-4,-4.8488045E-1,2.9508382E6,-8.689E-5,7.8E0,7.2673496E3,-8.859E-5,7.549762E-3,2.6520137E-2,1.9126713E-2,-2.8724154E-2,-1.821752E-2,3.1613853E-2,-3.2232234E-3,-4.030962E-2,-1.2264971E-3,-1.33241415E-2,-1.5519584E-2,2.0442089E-2,-6.743397E-3,2.9273971E-3,2.709958E-2,-1.6058935E-2,-5.590367E-2,-1.1800199E-2,-3.2784664E-3,6.4492375E-3,-1.4663662E-3,-8.750157E-3,3.2322776E-2,-1.22399675E-2,8.797036E-3,3.3618044E-2,1.7921998E-3,-2.330703E-2,1.4486738E-2,5.896037E-3,-3.233272E-2,-8.878711E-4,-2.741738E-2,1.6044257E-2],"split_indices":[7,6,6,7,1,7,1,12,6,8,3,1,6,8,1,1,5,3,1,6,14,11,1,12,0,1,3,14,11,14,7,0,0,0,0,0,0,0,0,0,0,0,0,0,0,0,0,0,0,0,0,0,0,0,0,0,0,0,0,0,0,0,0],"split_type":[0,0,0,0,0,0,0,0,0,0,0,0,0,0,0,0,0,0,0,0,0,0,0,0,0,0,0,0,0,0,0,0,0,0,0,0,0,0,0,0,0,0,0,0,0,0,0,0,0,0,0,0,0,0,0,0,0,0,0,0,0,0,0],"sum_hessian":[6.3698164E3,9.370751E2,5.432741E3,4.458006E2,4.912745E2,2.589317E3,2.8434243E3,9.262853E1,3.5317206E2,4.5903842E2,3.223608E1,2.1781167E3,4.112001E2,2.5776333E3,2.65791E2,8.997814E1,2.6503944E0,1.7202425E1,3.3596964E2,7.1536865E1,3.8750156E2,1.6443316E1,1.5792763E1,8.3702106E2,1.3410957E3,8.324463E1,3.2795547E2,9.872538E2,1.5903796E3,2.3512189E2,3.0669085E1,1.0693398E0,8.89088E1,1.0480279E0,1.6023666E0,1.8521997E0,1.5350225E1,6.2451977E1,2.7351764E2,7.003738E1,1.4994885E0,2.0387793E2,1.8362363E2,3.5438755E0,1.2899441E1,8.103226E0,7.6895366E0,5.1465967E2,3.2236142E2,8.321554E2,5.0894028E2,9.732209E0,7.351242E1,3.0503003E2,2.2925432E1,9.709146E2,1.6339113E1,1.462436E2,1.444136E3,8.520198E0,2.266017E2,2.551611E1,5.152976E0],"tree_param":{"num_deleted":"0","num_feature":"15","num_nodes":"63","size_leaf_vector":"1"}},{"base_weights":[-2.9612961E-3,-1.420966E-1,3.727546E-2,-2.3100679E-1,-6.333431E-2,4.464024E-2,-2.9556268E-1,-5.240261E-1,-1.8480691E-1,-3.118865E-2,-3.611913E-1,-2.633751E-2,6.7565955E-2,-5.5082315E-1,-5.9870068E-2,-3.5988453E-1,-7.1223426E-1,-2.0909959E-1,2.474622E-1,-1.751264E-1,2.3899168E-2,-2.3341952E-1,-7.758751E-1,-3.9054234E-2,3.3031353E-1,7.725138E-2,-1.7439772E-1,-3.4441218E-1,-8.9537084E-1,-3.4332326E-1,2.055019E-1,-2.5353426E-2,5.1250057E-3,-3.7290797E-2,1.4525071E-2,-9.837028E-3,-3.9671574E-2,4.0130906E-2,-5.2712164E-3,-1.7368803E-2,8.1026075E-5,-3.112427E-3,6.963245E-3,-1.847685E-2,2.064853E-2,-5.1311005E-2,8.609786E-3,2.4328716E-2,-2.2855464E-3,-8.219846E-3,2.9257912E-2,3.0586692E-3,1.0130133E-2,-2.720412E-2,-9.283474E-5,-3.6490843E-2,-5.9288847E-3,-5.3942174E-2,-1.1714915E-2,-2.8519532E-2,8.112996E-3,-1.4966202E-3,2.7051914E-2],"categories":[],"categories_nodes":[],"categories_segments":[],"categories_sizes":[],"default_left":[0,0,0,0,0,0,0,0,0,0,0,0,0,0,0,0,0,0,0,0,0,0,0,0,0,0,0,0,0,0,0,0,0,0,0,0,0,0,0,0,0,0,0,0,0,0,0,0,0,0,0,0,0,0,0,0,0,0,0,0,0,0,0],"id":21,"left_children":[1,3,5,7,9,11,13,15,17,19,21,23,25,27,29,31,33,35,37,39,41,43,45,47,49,51,53,55,57,59,61,-1,-1,-1,-1,-1,-1,-1,-1,-1,-1,-1,-1,-1,-1,-1,-1,-1,-1,-1,-1,-1,-1,-1,-1,-1,-1,-1,-1,-1,-1,-1,-1],"loss_changes":[3.565354E1,9.989492E0,1.21226015E1,8.982582E0,7.255119E0,7.8676777E0,6.4089203E0,2.548727E0,6.1516514E0,5.4442277E0,3.730812E0,5.368742E0,8.576866E0,3.3386688E0,4.342538E0,3.4902864E0,1.606617E0,3.819664E0,6.229413E0,5.7855616E0,4.948679E0,5.244364E0,4.2020874E0,4.014985E0,5.2352147E0,7.069971E0,8.989229E0,2.8461406E0,2.001607E0,3.288085E0,2.3827398E0,0E0,0E0,0E0,0E0,0E0,0E0,0E0,0E0,0E0,0E0,0E0,0E0,0E0,0E0,0E0,0E0,0E0,0E0,0E0,0E0,0E0,0E0,0E0,0E0,0E0,0E0,0E0,0E0,0E0,0E0,0E0,0E0],"parents":[2147483647,0,0,1,1,2,2,3,3,4,4,5,5,6,6,7,7,8,8,9,9,10,10,11,11,12,12,13,13,14,14,15,15,16,16,17,17,18,18,19,19,20,20,21,21,22,22,23,23,24,24,25,25,26,26,27,27,28,28,29,29,30,30],"right_children":[2,4,6,8,10,12,14,16,18,20,22,24,26,28,30,32,34,36,38,40,42,44,46,48,50,52,54,56,58,60,62,-1,-1,-1,-1,-1,-1,-1,-1,-1,-1,-1,-1,-1,-1,-1,-1,-1,-1,-1,-1,-1,-1,-1,-1,-1,-1,-1,-1,-1,-1,-1,-1],"split_conditions":[7.92648E-3,4.984008E1,3.892E3,4.3669357E-3,7.0377056E3,3.995287E1,1.3386614E-2,3.4E1,2.323E3,2.9807827E-3,3.74E2,2.7016E-4,4.3391E-4,1.8481E-4,-2.0495974E-1,9E0,2.058E-4,1.969E3,4.23799E-2,5.0062683E1,-1.1888193E-1,2.44E2,1.419E3,-3.3103E-4,3.1229183E-1,2.2067335E-2,2.709E3,-2.595E-5,4.188E3,4.840885E1,4.17E0,-2.5353426E-2,5.1250057E-3,-3.7290797E-2,1.4525071E-2,-9.837028E-3,-3.9671574E-2,4.0130906E-2,-5.2712164E-3,-1.7368803E-2,8.1026075E-5,-3.112427E-3,6.963245E-3,-1.847685E-2,2.064853E-2,-5.1311005E-2,8.609786E-3,2.4328716E-2,-2.2855464E-3,-8.219846E-3,2.9257912E-2,3.0586692E-3,1.0130133E-2,-2.720412E-2,-9.283474E-5,-3.6490843E-2,-5.9288847E-3,-5.3942174E-2,-1.1714915E-2,-2.8519532E-2,8.112996E-3,-1.4966202E-3,2.7051914E-2],"split_indices":[7,6,13,7,14,6,7,13,13,5,13,1,1,1,9,13,1,13,14,14,9,13,13,11,12,7,13,11,13,6,3,0,0,0,0,0,0,0,0,0,0,0,0,0,0,0,0,0,0,0,0,0,0,0,0,0,0,0,0,0,0,0,0],"split_type":[0,0,0,0,0,0,0,0,0,0,0,0,0,0,0,0,0,0,0,0,0,0,0,0,0,0,0,0,0,0,0,0,0,0,0,0,0,0,0,0,0,0,0,0,0,0,0,0,0,0,0,0,0,0,0,0,0,0,0,0,0,0,0],"sum_hessian":[6.366631E3,1.4275955E3,4.939035E3,6.696891E2,7.579063E2,4.8329614E3,1.06074066E2,8.979952E1,5.798895E2,6.850755E2,7.2830795E1,1.179889E3,3.6530723E3,5.028127E1,5.5792797E1,4.95221E1,4.0277428E1,5.495237E2,3.0365885E1,1.890173E2,4.9605823E2,5.6870747E1,1.5960048E1,1.1401272E3,3.976179E1,3.513128E3,1.3994426E2,3.2694386E1,1.7586885E1,2.683531E1,2.8957489E1,3.7491386E1,1.2030712E1,3.922016E1,1.0572656E0,5.3945056E2,1.0073077E1,1.1305617E1,1.9060268E1,9.523761E1,9.37797E1,2.8425516E2,2.1180305E2,4.7331867E1,9.538883E0,1.2560838E1,3.3992102E0,1.3356669E1,1.1267706E3,1.3639463E1,2.6122328E1,3.1150667E3,3.9806143E2,4.384629E1,9.609797E1,1.1255065E1,2.1439318E1,1.3271566E1,4.31532E0,1.8429897E1,8.405413E0,1.7552382E1,1.14051075E1],"tree_param":{"num_deleted":"0","num_feature":"15","num_nodes":"63","size_leaf_vector":"1"}},{"base_weights":[-3.0330536E-3,-1.2936735E-1,3.7676997E-2,-1.0574427E-1,-4.34173E-1,1.5616882E-1,2.2500101E-2,-3.499247E-1,-8.089603E-2,-9.441078E-1,-3.4502426E-1,3.0874604E-1,5.3057652E-2,-4.671313E-2,5.1995873E-2,-6.6182363E-1,-2.9787558E-1,-9.9969074E-2,1.3939601E-1,-1.0454017E0,1.3024344E-2,1.404649E-2,-4.2602512E-1,1.2958463E-1,3.9175394E-1,-1.2863517E-1,1.3687639E-1,-2.8390306E-1,-3.3528535E-3,5.6202434E-2,-2.534998E-1,-3.8107913E-2,-1.6928334E-2,2.159692E-2,-1.5562466E-2,-4.1254307E-3,-1.5703278E-2,8.365344E-4,1.7601505E-2,-1.3193898E-2,-5.4728806E-2,-1.6799605E-2,2.4615912E-2,-2.9340817E-2,-1.2265163E-2,1.5782144E-2,-1.4634381E-2,1.2632939E-3,2.1713763E-2,-1.7219571E-2,1.0634512E-2,7.6580993E-3,-4.11511E-2,-1.4993997E-2,3.7836146E-2,7.161376E-3,-1.6948972E-3,2.156358E-3,7.87502E-3,-4.6343817E-3,-4.043841E-2],"categories":[],"categories_nodes":[],"categories_segments":[],"categories_sizes":[],"default_left":[0,0,0,0,0,0,0,0,0,0,0,0,0,0,0,0,0,0,0,0,0,0,0,0,0,0,0,0,0,0,0,0,0,0,0,0,0,0,0,0,0,0,0,0,0,0,0,0,0,0,0,0,0,0,0,0,0,0,0,0,0],"id":22,"left_children":[1,3,5,7,9,11,13,15,17,19,21,23,25,27,29,31,33,35,37,39,-1,41,43,45,47,49,51,53,55,57,59,-1,-1,-1,-1,-1,-1,-1,-1,-1,-1,-1,-1,-1,-1,-1,-1,-1,-1,-1,-1,-1,-1,-1,-1,-1,-1,-1,-1,-1,-1],"loss_changes":[3.271221E1,1.1115391E1,8.6472225E0,8.7083E0,4.728136E0,8.573684E0,8.710223E0,1.957016E0,5.510602E0,2.220623E0,2.8040934E0,3.2207584E0,4.9980173E0,1.3112892E1,3.858327E0,3.3090544E-1,1.2621031E0,4.477001E0,2.7239115E0,2.8487587E-1,0E0,3.2919893E0,2.1379766E0,5.682029E0,2.3240185E0,7.7140546E0,3.632028E0,3.50323E0,4.836023E0,3.9024553E0,3.569222E0,0E0,0E0,0E0,0E0,0E0,0E0,0E0,0E0,0E0,0E0,0E0,0E0,0E0,0E0,0E0,0E0,0E0,0E0,0E0,0E0,0E0,0E0,0E0,0E0,0E0,0E0,0E0,0E0,0E0,0E0],"parents":[2147483647,0,0,1,1,2,2,3,3,4,4,5,5,6,6,7,7,8,8,9,9,10,10,11,11,12,12,13,13,14,14,15,15,16,16,17,17,18,18,19,19,21,21,22,22,23,23,24,24,25,25,26,26,27,27,28,28,29,29,30,30],"right_children":[2,4,6,8,10,12,14,16,18,20,22,24,26,28,30,32,34,36,38,40,-1,42,44,46,48,50,52,54,56,58,60,-1,-1,-1,-1,-1,-1,-1,-1,-1,-1,-1,-1,-1,-1,-1,-1,-1,-1,-1,-1,-1,-1,-1,-1,-1,-1,-1,-1,-1,-1],"split_conditions":[8.178832E-3,7.0377056E3,-5.687E-5,2.7672956E-3,-1.0135093E0,5.5910224E-1,7.5E-3,1.6104651E-3,1.3505437E-2,1.4727362E-2,3.562E-5,-1.3063E-4,-1.8625E-4,-8.4416556E-1,2.8308E-4,1.4933721E-3,-3.164E-4,1.0856E-4,7.73E0,3.1065727E-3,1.3024344E-2,-1.8821116E-1,2.2746475E-2,-1.0301E-4,-4.5053206E-2,1.6129032E-2,3.3117E-4,3.5859E-4,2.685E-5,2.3204861E-2,7.2972107E-1,-3.8107913E-2,-1.6928334E-2,2.159692E-2,-1.5562466E-2,-4.1254307E-3,-1.5703278E-2,8.365344E-4,1.7601505E-2,-1.3193898E-2,-5.4728806E-2,-1.6799605E-2,2.4615912E-2,-2.9340817E-2,-1.2265163E-2,1.5782144E-2,-1.4634381E-2,1.2632939E-3,2.1713763E-2,-1.7219571E-2,1.0634512E-2,7.6580993E-3,-4.11511E-2,-1.4993997E-2,3.7836146E-2,7.161376E-3,-1.6948972E-3,2.156358E-3,7.87502E-3,-4.6343817E-3,-4.043841E-2],"split_indices":[7,14,1,8,12,14,4,8,10,10,1,11,1,12,11,10,1,1,4,7,0,12,2,1,10,8,11,1,1,7,2,0,0,0,0,0,0,0,0,0,0,0,0,0,0,0,0,0,0,0,0,0,0,0,0,0,0,0,0,0,0],"split_type":[0,0,0,0,0,0,0,0,0,0,0,0,0,0,0,0,0,0,0,0,0,0,0,0,0,0,0,0,0,0,0,0,0,0,0,0,0,0,0,0,0,0,0,0,0,0,0,0,0,0,0,0,0,0,0,0,0,0,0,0,0],"sum_hessian":[6.35849E3,1.5490846E3,4.809406E3,1.4389127E3,1.10171814E2,5.450105E2,4.264395E3,1.3169368E2,1.307219E3,1.4967394E1,9.520442E1,2.1898154E2,3.2602896E2,1.2740927E3,2.9903025E3,1.7158401E1,1.14535286E2,1.20356E3,1.0365893E2,1.3928321E1,1.039073E0,1.7675753E1,7.752867E1,7.014472E1,1.4883682E2,1.0275455E2,2.2327443E2,1.9605925E2,1.0780333E3,2.9504915E3,3.9811123E1,1.2058011E1,5.1003914E0,1.49787E0,1.13037415E2,1.114087E3,8.9473076E1,6.64206E1,3.723833E1,1.2013625E0,1.2726958E1,1.0377866E1,7.2978873E0,3.9837517E1,3.7691154E1,4.88662E1,2.1278522E1,1.5639065E1,1.3319775E2,6.2952477E1,3.9802067E1,2.2037598E2,2.8984492E0,1.937957E2,2.2635493E0,1.852695E2,8.9276385E2,2.6144507E3,3.360408E2,3.1775492E1,8.035629E0],"tree_param":{"num_deleted":"0","num_feature":"15","num_nodes":"61","size_leaf_vector":"1"}},{"base_weights":[2.0326718E-3,-1.8445696E-1,3.0543115E-2,-2.815156E-1,-1.0032743E-1,-2.8619915E-2,6.399624E-2,-8.8032997E-1,-2.6490897E-1,-2.9461753E-1,-7.1148604E-2,-1.0511366E-1,4.1017585E-2,7.4956395E-2,-1.5411595E-1,-1.3456359E-2,-4.7327276E-2,-2.4055289E-1,-5.17688E-1,-3.2525244E-1,2.3317678E-2,-4.8064843E-2,-3.589019E-1,-2.9208379E-2,-2.2370589E-1,1.2039198E-2,2.8478965E-1,4.9603086E-2,1.4935818E-1,-1.1426445E-1,-5.3373903E-2,1.4078769E-2,-1.2530948E-2,-2.932996E-2,4.9257274E-3,-1.8125694E-2,1.508971E-2,-9.0942485E-4,-1.86562E-2,-2.7330382E-2,3.0703333E-3,-1.9158803E-2,7.5396866E-4,-9.908925E-3,-3.2359205E-2,-4.027584E-3,4.314236E-3,4.499871E-2,1.1805176E-2,2.708067E-3,-2.8849443E-2,1.3505246E-2,4.53729E-3,-4.299881E-3,-5.3570896E-2],"categories":[],"categories_nodes":[],"categories_segments":[],"categories_sizes":[],"default_left":[0,0,0,0,0,0,0,0,0,0,0,0,0,0,0,0,0,0,0,0,0,0,0,0,0,0,0,0,0,0,0,0,0,0,0,0,0,0,0,0,0,0,0,0,0,0,0,0,0,0,0,0,0,0,0],"id":23,"left_children":[1,3,5,7,9,11,13,15,17,19,21,23,25,27,29,-1,-1,31,33,35,-1,37,39,41,43,45,47,49,51,53,-1,-1,-1,-1,-1,-1,-1,-1,-1,-1,-1,-1,-1,-1,-1,-1,-1,-1,-1,-1,-1,-1,-1,-1,-1],"loss_changes":[3.3791965E1,6.853586E0,1.0912544E1,3.652752E0,2.5472808E0,1.0614811E1,8.43063E0,1.5459299E-1,2.2252293E0,1.5232253E0,2.6077485E0,8.540657E0,7.3672457E0,6.319336E0,6.0233116E0,0E0,0E0,1.9100113E0,1.445241E0,1.4445939E0,0E0,3.5572999E0,2.336743E0,9.099603E0,3.8759365E0,6.424836E0,3.1064243E0,7.1803827E0,6.004877E0,4.315053E0,0E0,0E0,0E0,0E0,0E0,0E0,0E0,0E0,0E0,0E0,0E0,0E0,0E0,0E0,0E0,0E0,0E0,0E0,0E0,0E0,0E0,0E0,0E0,0E0,0E0],"parents":[2147483647,0,0,1,1,2,2,3,3,4,4,5,5,6,6,7,7,8,8,9,9,10,10,11,11,12,12,13,13,14,14,17,17,18,18,19,19,21,21,22,22,23,23,24,24,25,25,26,26,27,27,28,28,29,29],"right_children":[2,4,6,8,10,12,14,16,18,20,22,24,26,28,30,-1,-1,32,34,36,-1,38,40,42,44,46,48,50,52,54,-1,-1,-1,-1,-1,-1,-1,-1,-1,-1,-1,-1,-1,-1,-1,-1,-1,-1,-1,-1,-1,-1,-1,-1,-1],"split_conditions":[5.0048553E-3,4.984008E1,4.4200554E1,1.6104651E-3,2.4983368E-3,1.2796313E-2,1.7112805E0,-4.941545E-1,6.339611E3,8.574841E3,7.2673496E3,4.8E1,7.3089096E1,1.687289E-2,5.9753954E-2,-1.3456359E-2,-4.7327276E-2,-2.055E-4,5.2031474E-3,6.543355E1,2.3317678E-2,1.3605326E0,7.740867E-1,3.6690005E-3,3.892E3,1.8180944E-2,-1.2E1,8.153445E3,1.1E1,3.892E3,-5.3373903E-2,1.4078769E-2,-1.2530948E-2,-2.932996E-2,4.9257274E-3,-1.8125694E-2,1.508971E-2,-9.0942485E-4,-1.86562E-2,-2.7330382E-2,3.0703333E-3,-1.9158803E-2,7.5396866E-4,-9.908925E-3,-3.2359205E-2,-4.027584E-3,4.314236E-3,4.499871E-2,1.1805176E-2,2.708067E-3,-2.8849443E-2,1.3505246E-2,4.53729E-3,-4.299881E-3,-5.3570896E-2],"split_indices":[8,6,6,8,8,7,12,2,14,14,14,13,14,8,8,0,0,11,5,6,0,12,12,5,13,8,13,14,13,13,0,0,0,0,0,0,0,0,0,0,0,0,0,0,0,0,0,0,0,0,0,0,0,0,0],"split_type":[0,0,0,0,0,0,0,0,0,0,0,0,0,0,0,0,0,0,0,0,0,0,0,0,0,0,0,0,0,0,0,0,0,0,0,0,0,0,0,0,0,0,0,0,0,0,0,0,0,0,0,0,0,0,0],"sum_hessian":[6.3535156E3,8.417932E2,5.511722E3,3.8977307E2,4.520201E2,1.9908964E3,3.5208262E3,9.114241E0,3.8065884E2,5.783345E1,3.9418668E2,9.485005E2,1.0423958E3,3.3529941E3,1.6783191E2,1.3859186E0,7.728322E0,3.4898465E2,3.1674187E1,5.6145737E1,1.6877142E0,3.6599347E2,2.8193205E1,5.790953E2,3.6940524E2,9.325843E2,1.0981149E2,2.5020552E3,8.509389E2,1.6189334E2,5.93857E0,6.0906215E0,3.42894E2,2.8531492E1,3.1426945E0,5.33947E1,2.7510376E0,3.3615338E2,2.9840073E1,1.9281696E1,8.911509E0,6.3547E1,5.155483E2,3.4978787E2,1.9617357E1,4.1498077E2,5.176035E2,6.7709146E0,1.0304058E2,2.484892E3,1.716321E1,2.768973E2,5.7404156E2,1.58308E2,3.5853345E0],"tree_param":{"num_deleted":"0","num_feature":"15","num_nodes":"55","size_leaf_vector":"1"}},{"base_weights":[9.980771E-4,-2.2569858E-1,2.1473538E-2,-3.2968953E-1,-1.51337E-1,-6.354127E-2,4.3793924E-2,-8.729523E-1,-3.0577153E-1,-3.4346497E-1,-1.1268813E-1,-3.1084606E-1,-3.161649E-2,6.0862318E-2,-6.709687E-2,-1.2809907E-2,-4.686595E-2,2.9847014E-1,-3.1942427E-1,-3.967602E-1,3.952467E-1,-5.0876785E-2,-1.9638139E-1,-3.3409086E-1,4.2804012E-1,-2.4581749E-2,-5.99841E-1,2.7376978E-2,1.5706146E-1,-3.9285228E-2,-5.017933E-1,-1.4174737E-2,3.0580956E-2,-1.3089581E-2,-2.5451502E-2,3.6078754E-3,-2.1684738E-2,-4.38822E-3,3.148486E-2,-1.9514544E-2,-1.4641065E-3,-1.3548115E-2,-1.169674E-3,-5.302491E-3,-1.9981211E-2,3.4055777E-2,-9.906544E-3,7.389921E-3,-2.433467E-3,-3.6708727E-2,2.5204042E-2,-3.1352863E-3,2.7035102E-3,1.32198725E-2,5.6317407E-3,-2.127367E-2,-8.897315E-4,-3.244294E-2,9.530849E-3],"categories":[],"categories_nodes":[],"categories_segments":[],"categories_sizes":[],"default_left":[0,0,0,0,0,0,0,0,0,0,0,0,0,0,0,0,0,0,0,0,0,0,0,0,0,0,0,0,0,0,0,0,0,0,0,0,0,0,0,0,0,0,0,0,0,0,0,0,0,0,0,0,0,0,0,0,0,0,0],"id":24,"left_children":[1,3,5,7,9,11,13,15,17,19,21,23,25,27,29,-1,-1,31,33,35,37,39,41,43,45,47,49,51,53,55,57,-1,-1,-1,-1,-1,-1,-1,-1,-1,-1,-1,-1,-1,-1,-1,-1,-1,-1,-1,-1,-1,-1,-1,-1,-1,-1,-1,-1],"loss_changes":[2.953446E1,4.0260563E0,1.1076382E1,2.5775948E0,2.2570882E0,9.57443E0,8.7536955E0,1.0493946E-1,1.8378258E0,2.1761055E0,1.329273E0,2.524847E0,4.287417E0,1.2902166E1,7.440811E0,0E0,0E0,1.1181362E0,2.129139E0,8.684716E-1,5.0283736E-1,1.0898981E0,1.4080205E0,1.9752626E0,8.7468547E-1,4.4257593E0,2.3155055E0,7.153029E0,4.9025097E0,4.815043E0,3.8936987E0,0E0,0E0,0E0,0E0,0E0,0E0,0E0,0E0,0E0,0E0,0E0,0E0,0E0,0E0,0E0,0E0,0E0,0E0,0E0,0E0,0E0,0E0,0E0,0E0,0E0,0E0,0E0,0E0],"parents":[2147483647,0,0,1,1,2,2,3,3,4,4,5,5,6,6,7,7,8,8,9,9,10,10,11,11,12,12,13,13,14,14,17,17,18,18,19,19,20,20,21,21,22,22,23,23,24,24,25,25,26,26,27,27,28,28,29,29,30,30],"right_children":[2,4,6,8,10,12,14,16,18,20,22,24,26,28,30,-1,-1,32,34,36,38,40,42,44,46,48,50,52,54,56,58,-1,-1,-1,-1,-1,-1,-1,-1,-1,-1,-1,-1,-1,-1,-1,-1,-1,-1,-1,-1,-1,-1,-1,-1,-1,-1,-1,-1],"split_conditions":[4.1724616E-3,4.8878216E1,3.8599514E1,1.6104651E-3,2.3328064E-3,7.6669413E-3,1.1662E-4,-4.941545E-1,-5.8E1,6.480489E1,-1.1559997E-1,2.058E-4,-6.683871E-3,1.5718563E-2,3.892E3,-1.2809907E-2,-4.686595E-2,-7.556973E-1,1.812E-5,-1.1759612E-3,1.43E0,2.390255E3,-3.4701496E-1,1.47E-2,5.968E-5,-1.3E1,7.039796E-1,7.407953E4,2E0,4.1E1,1.6351415E-2,-1.4174737E-2,3.0580956E-2,-1.3089581E-2,-2.5451502E-2,3.6078754E-3,-2.1684738E-2,-4.38822E-3,3.148486E-2,-1.9514544E-2,-1.4641065E-3,-1.3548115E-2,-1.169674E-3,-5.302491E-3,-1.9981211E-2,3.4055777E-2,-9.906544E-3,7.389921E-3,-2.433467E-3,-3.6708727E-2,